1957 128
</s> 0.003127 0.003453 -0.002992 -0.002561 0.001068 0.002360 0.000735 0.000165 -0.002815 0.001733 -0.003403 0.000976 -0.000587 -0.000748 -0.002590 -0.001470 0.002015 0.002364 0.002320 0.001248 0.001207 -0.002971 -0.003200 0.003883 0.002970 0.002414 -0.000472 0.003137 -0.000387 0.000574 -0.000117 -0.002331 0.001025 -0.001045 -0.002989 0.003714 0.003421 -0.000856 -0.000177 0.000398 -0.002842 -0.003131 0.003558 0.000049 -0.002017 -0.002377 -0.002403 0.001326 0.000157 0.001040 -0.003292 -0.002975 -0.000102 0.000893 0.001992 -0.002477 0.003187 0.000724 0.000875 -0.000475 0.002333 -0.001787 -0.001639 0.001686 -0.000588 0.000805 0.001410 -0.003194 -0.001549 0.002276 0.003306 0.003072 -0.002380 -0.001647 -0.000710 0.001564 -0.002960 0.002342 0.002178 -0.001249 -0.001212 -0.001749 0.003304 0.003056 -0.000922 0.003293 0.003766 0.001418 0.003893 -0.002431 -0.001197 -0.001646 -0.002271 0.002199 0.001234 0.000332 -0.001714 0.001191 0.002390 0.000151 0.001781 -0.003869 0.003371 0.000375 -0.001431 -0.001628 -0.000584 -0.002293 -0.003414 -0.002216 0.003341 -0.001383 -0.002093 0.001810 -0.001331 0.003716 -0.001254 -0.003585 0.002122 -0.000058 -0.002726 0.000762 0.001127 -0.000376 0.001425 -0.003092 0.000688 0.001419 
318 0.209703 -0.198750 -0.194651 -0.327249 -0.341136 -0.227563 -0.315879 -0.878828 -0.169966 -0.652773 -0.450558 -0.647216 -0.194179 0.348810 -0.212295 0.321065 -0.371540 0.398618 0.540604 0.375471 0.057966 0.595803 -0.797117 0.141051 -0.140442 -0.082976 0.164382 0.001137 -0.385484 -0.157794 -0.244287 -0.211886 -0.331931 0.307379 0.244389 -0.332966 0.297079 0.327213 0.202370 -0.194821 0.562251 0.140453 0.205685 -0.041547 -0.078560 0.203914 -0.433953 -0.632758 0.434548 -0.252434 0.233586 -0.372712 -0.069149 0.201341 -0.482654 0.079001 -0.313213 -0.189640 -0.137926 -0.292841 0.490283 -0.505256 -0.100491 0.397674 -0.009583 0.013753 0.124569 0.170298 -0.087253 -0.174563 0.236813 0.494986 -0.003081 -0.228949 -0.160578 0.088796 0.123468 -0.443364 0.602725 -0.054647 -0.157308 0.267118 -0.352113 -0.433014 0.540205 -0.250393 0.014052 0.231578 0.673574 0.168631 0.303811 0.385992 0.134524 0.276760 0.511732 0.429427 0.254792 0.048499 0.201456 -0.371365 -0.141194 0.495932 0.213883 -0.169257 -0.039667 0.254069 -0.606046 0.006846 0.040827 -0.123416 -0.221450 -0.138746 -0.081511 -0.212848 0.232132 -0.418734 0.322190 -0.010900 -0.118089 -0.036865 -0.001257 0.170282 -0.182783 -0.177564 -0.408315 -0.014619 0.140271 -0.100982 
356 -0.027646 0.131886 -0.239759 -0.118561 0.194070 -0.232560 -0.330420 -0.815198 0.099280 0.052303 -0.002532 -0.362795 -0.094358 0.176738 -0.115405 0.595780 -0.082863 0.191410 0.914669 0.110127 -0.100689 0.506680 -0.624728 0.114891 0.318487 -0.260098 -0.206206 0.504053 -0.108820 -0.136995 -0.030721 -0.433087 -0.132256 0.092850 -0.237450 -0.119578 0.114856 0.106816 0.577429 -0.800607 -0.090144 0.147636 -0.201171 0.169791 0.067496 -0.243261 0.040358 0.034562 0.321834 -0.275591 0.513898 -0.166417 -0.043097 0.198227 -0.616760 0.458771 -0.426122 -0.124227 -0.291309 0.236352 0.180172 -0.639655 0.431610 0.170507 0.072004 0.454839 0.013485 0.252292 0.503140 -0.038903 0.333492 0.532586 0.403729 -0.631347 0.069840 -0.015460 -0.050640 -0.182660 0.140069 0.375507 -0.343057 0.193136 -0.424371 -0.310479 0.019905 -0.051342 -0.306678 0.068570 1.181413 0.078445 -0.131740 -0.051089 0.157292 0.111600 0.547118 0.005342 0.085343 -0.225287 -0.087553 -0.619185 -0.111687 0.473886 -0.010538 -0.176001 -0.193131 -0.076632 0.101299 -0.163143 0.197255 0.289010 -0.054936 0.079710 -0.064313 -0.086163 0.457800 -0.024275 -0.277823 0.139311 -0.024666 -0.047802 0.005579 -0.447157 -0.370820 -0.016690 -0.550721 -0.084103 0.040401 -0.323668 
296 0.345776 0.071772 -0.201214 -0.500701 -0.011351 -0.149390 -0.557053 -0.641127 -0.117221 0.275785 0.067998 -0.396245 0.457031 0.249720 -0.182030 -0.164297 0.029316 0.473059 0.840462 -0.077184 0.061437 0.221780 -0.381090 -0.103872 0.033891 -0.282252 -0.206109 -0.006183 -0.114631 0.102498 -0.009521 0.131041 -0.276588 0.431013 0.265500 -0.494306 0.312854 0.376731 -0.025934 -0.166846 -0.086530 0.127071 0.289452 -0.352644 0.103005 0.081460 -0.140334 -0.218773 -0.074145 0.021473 -0.100221 -0.540975 0.012536 0.359684 -0.322484 0.502832 -0.451861 -0.083468 -0.408839 -0.265861 0.535395 -0.493018 0.307229 0.126231 0.336314 0.199029 0.158192 0.083172 0.339459 -0.114068 -0.056698 0.406127 0.248061 -0.102545 -0.341455 0.053271 0.375926 -0.538227 0.663208 0.004882 -0.612837 -0.218996 -0.429350 0.036087 0.372536 -0.018808 -0.191914 0.087503 1.275829 0.296679 -0.453309 0.122672 -0.409879 -0.364230 0.541126 0.046275 -0.265776 0.017071 -0.031695 -0.222975 0.208570 0.526342 0.234882 0.173305 0.109342 -0.354424 -0.683701 0.087479 0.292256 0.410615 0.082636 -0.263421 0.005619 -0.027286 0.131485 0.023839 0.315243 0.041969 -0.291511 -0.287663 0.067090 0.222433 -0.323580 -0.079683 -0.463212 0.002528 0.131141 -0.169320 
593 -0.494884 -0.585533 -0.228985 -0.480739 0.296438 -0.158037 -0.520920 -1.322292 -0.057674 -0.400326 -0.246887 -0.641261 0.426311 0.202128 -0.817258 0.209076 -0.297150 0.478412 0.903557 -0.166599 -0.198315 0.579888 -0.319516 0.361486 0.394969 0.058271 0.159373 -0.031239 -0.218291 -0.126061 0.027271 -0.077049 -0.314027 -0.035238 0.117046 -0.083865 -0.120567 -0.110052 0.139858 -0.090963 0.376180 -0.151869 0.124588 -0.186940 0.714188 -0.005503 -0.254436 0.169671 -0.212270 -0.360187 -0.251007 0.230973 -0.022583 -0.031263 -0.413451 0.632957 0.078970 -0.020675 0.153375 0.469270 0.304449 0.027990 -0.170416 0.044221 -0.150381 0.184061 0.014034 -0.043632 0.398712 0.044592 -0.199695 0.640062 -0.090771 -0.818226 -0.270143 -0.028975 0.498087 -0.585742 0.315037 -0.027185 -0.243587 -0.105527 -0.006196 -0.094135 -0.196619 -0.172401 -0.368377 0.227493 0.641637 -0.066761 -0.286941 -0.320967 -0.546242 -0.141227 0.207675 0.108557 -0.071079 -0.103895 -0.080105 -0.233202 -0.317933 0.726935 -0.217347 0.044359 0.165501 0.075838 -0.488603 0.038537 -0.447571 0.354586 0.049120 0.240995 0.092941 -0.031209 -0.272019 0.271678 0.607646 0.143295 0.072625 -0.085245 -0.398192 0.136277 0.075591 0.044687 -0.011071 -0.155433 0.096146 -0.209161 
2571 -0.220744 -0.014705 -0.177122 0.274205 0.174694 0.269139 -0.612008 -1.010362 0.401320 0.316527 -0.065033 -0.286327 -0.072198 -0.328225 0.022631 0.620086 -0.290713 -0.170332 0.363282 -0.183814 -0.289239 -0.291751 -0.227566 -0.234965 -0.466689 -0.302235 0.175157 -0.336978 -0.050776 0.482003 -0.115040 0.464462 -0.264067 -0.025480 0.050318 0.014640 0.031603 0.531157 0.186583 -0.079763 -0.079273 -0.294469 0.545490 0.065546 0.361321 0.528628 0.204268 -0.395414 0.228519 -0.085626 -0.256963 0.481259 -0.213628 -0.556327 -0.383994 0.078179 -0.105019 0.073306 -0.345636 0.212742 0.259996 0.160937 -0.149370 0.519332 0.236731 0.727129 -0.599894 -0.287787 0.639982 0.170034 0.141495 -0.308532 0.385244 -0.027542 0.024069 -0.458847 -0.079349 0.036179 0.001833 0.009921 -0.223200 0.104748 -0.540685 0.352327 -0.011361 0.318710 0.065533 -0.364105 0.745462 0.258013 -0.217302 0.046815 0.366501 -0.122612 -0.218886 0.353714 0.155863 -0.123760 0.165710 -0.507969 0.046492 0.421773 -0.181934 -0.036678 0.016156 0.158750 0.814254 0.501361 0.222686 -0.292460 -0.646740 -0.057305 -0.147987 0.239571 0.305529 -0.952950 0.114011 -0.597872 -0.326921 0.166945 -0.310151 0.303073 0.100398 -0.188850 -0.253118 -0.361833 -0.147146 -0.229144 
260 0.110822 -0.540848 -0.271360 -0.274479 -0.457349 -0.190352 -0.222240 -0.388388 -0.198316 -0.159853 -0.437443 -0.401671 0.046960 0.399360 -0.172411 0.369467 -0.111271 0.365373 0.692684 0.513762 -0.194936 0.129881 -0.553453 0.332322 0.707615 -0.371277 -0.146323 -0.476667 -0.060773 0.065032 -0.121580 0.432048 -0.032561 0.091132 0.137728 -0.275409 -0.025145 0.040885 -0.156631 -0.213819 0.269615 0.019975 -0.115876 -0.519803 0.024664 0.097951 -0.074418 -0.471061 -0.113996 -0.100631 0.245836 -0.054201 0.080869 0.140923 -0.008284 0.070247 -0.235758 -0.081322 0.193340 0.031870 0.299646 0.074122 0.233735 0.489070 -0.222978 -0.466548 0.465974 0.118726 0.271762 -0.108893 -0.145323 0.274978 0.151430 -0.627314 -0.498561 -0.527355 0.117289 -0.790103 -0.034137 -0.151828 -0.421635 -0.152117 -0.550947 -0.384070 0.480159 -0.546886 -0.339682 0.167071 0.703560 0.144583 -0.131768 -0.560647 0.005949 0.238696 0.307718 0.166750 0.411381 -0.231641 0.067704 -0.223675 0.261162 0.658828 0.383659 -0.478120 0.327241 0.028908 -0.426411 0.202742 0.375742 0.779466 -0.091362 0.135282 -0.305271 -0.006087 0.139461 -0.253380 0.109093 -0.099757 -0.024155 -0.095312 0.056100 -0.043216 -0.177086 -0.142469 0.151959 -0.014952 0.210444 -0.416850 
2959 0.047389 0.392435 -0.240375 -0.492064 0.642387 -0.072426 -0.300212 -1.019352 0.415392 0.139449 -0.343281 -0.282735 0.202507 -0.272463 0.357179 0.079915 0.041521 -0.440618 0.903222 0.033657 0.167983 -0.387760 -0.237299 -0.284025 0.042569 -0.431360 0.408102 -0.431871 0.069233 -0.163099 -0.083222 0.092915 -0.105997 -0.256500 0.386386 -0.440113 0.370129 0.302356 0.206979 -0.067286 0.043731 -0.307423 0.224286 -0.172427 0.076283 -0.181168 0.545614 -0.175559 0.418394 0.177712 0.020002 0.403284 -0.076531 -0.071277 0.178391 -0.331299 0.103397 -0.242560 -0.395570 0.095090 0.172750 -0.335918 -0.480760 0.574495 -0.127970 0.029722 -0.380913 -0.619810 0.594416 0.654745 0.371631 -0.147473 -0.046444 0.487103 -0.014715 -1.048574 -0.306374 0.160345 0.416407 0.346992 -0.138422 -0.284535 -0.758174 0.072927 -0.071263 0.254360 0.098707 -0.241682 0.680279 0.192948 -0.146087 0.155879 -0.225678 -0.512752 -0.312598 0.501005 -0.248026 -0.001084 -0.091778 -0.861695 -0.089197 0.150078 0.091427 0.343163 0.121611 -0.032700 -0.111391 -0.346832 0.085322 -0.365791 -0.042668 0.465292 0.353395 0.162126 0.220192 -0.462758 0.198407 -0.080659 -0.117294 -0.440365 0.265971 0.294564 -0.077297 0.009365 -0.527996 -0.289755 -0.323007 -0.422873 
527 0.054631 -0.205769 -0.201396 -0.227849 0.184979 -0.163884 -0.357515 -0.919220 -0.161864 -0.370428 -0.235700 -0.389350 0.251927 0.309516 -0.464696 0.655759 0.038890 0.127960 1.091744 0.264694 -0.597150 0.520539 -0.228405 -0.136162 -0.063625 0.078752 0.282630 0.246203 -0.123840 0.176686 0.012288 -0.128994 -0.645624 0.188858 -0.205054 -0.167548 0.409966 -0.161531 0.626165 0.048909 0.020479 0.117543 -0.419399 -0.247665 0.116228 0.123810 0.302367 -0.502971 0.283443 -0.474644 -0.159300 0.122108 -0.351803 -0.077101 -0.159914 -0.403132 -0.222962 0.075948 -0.502413 0.442589 0.556753 -0.287091 -0.328737 0.061330 0.309727 0.057613 0.236638 0.281170 -0.020290 -0.057253 -0.315945 0.204574 0.024167 -0.825508 -0.004532 0.319330 0.146385 -0.959139 0.335334 -0.151221 -0.042969 0.060928 -0.297693 -0.301212 -0.168847 -0.455309 -0.286243 0.196619 1.048776 0.154760 -0.347848 -0.077952 0.086673 -0.660209 0.168800 0.228879 0.425479 0.051548 0.337487 -0.260802 -0.126060 0.493207 -0.123391 0.143250 0.002404 -0.487318 0.160705 -0.248655 -0.253920 0.129967 0.447257 0.492751 -0.175330 -0.021900 0.146545 0.277148 0.356543 0.580113 -0.155735 -0.025032 -0.177957 0.140895 -0.482062 -0.102199 0.028319 -0.101513 -0.224181 -0.015520 
1196 -0.346577 -0.113119 -0.038591 -0.282683 0.347556 0.065124 -0.338591 -1.215757 0.192201 -0.183985 -0.351614 -0.832910 -0.451105 0.356544 -0.191965 -0.112748 -0.533711 -0.318982 0.386352 -0.031071 -0.045368 0.333906 -0.223464 0.257173 -0.187189 -0.249943 -0.237852 -0.506173 0.026065 0.164714 0.303211 0.052572 -0.169886 0.326523 -0.002603 -0.586125 -0.345127 -0.443732 0.021212 0.192833 0.263406 -0.231737 0.724528 -0.020856 0.202527 -0.009235 0.275345 -0.024084 -0.278241 0.067578 0.053236 0.260731 -0.202820 -0.119927 -0.361065 -0.060857 -0.024368 0.084480 0.321138 0.338174 0.430428 -0.728848 -0.058930 0.012689 0.221734 -0.191448 -0.205368 -0.121469 -0.260303 0.189968 0.335981 -0.051361 0.599981 -0.522434 -0.261782 0.106895 0.460241 0.119398 -0.382247 0.303314 -0.253933 0.520708 -0.446031 0.081159 -0.450988 -0.584239 -0.115661 -0.245741 1.145777 0.568388 0.035353 -0.449930 -0.378627 -0.065915 0.487749 -0.120167 0.287025 0.144161 0.463770 -0.582850 0.025679 0.110540 0.740691 -0.420163 -0.109425 -0.096649 0.309816 0.041630 -0.201252 -0.359005 -0.193523 0.111983 0.320129 -0.096608 -0.038933 0.153264 -0.083030 0.187633 -0.179571 0.301092 0.002503 0.072109 0.361539 -0.023861 -0.275350 0.309228 0.282564 0.489582 
110 -0.046742 -0.437062 0.116282 -0.584745 -0.249855 0.072018 -0.329623 -0.662502 -0.089737 0.070478 -0.121156 -0.463078 0.055655 0.142506 0.061581 0.076904 0.436528 0.648359 0.693432 0.399154 -0.048035 0.594450 -0.394947 -0.144695 0.228958 -0.316447 -0.420645 -0.578701 -0.403207 0.032775 -0.255065 0.009994 -0.317887 0.686042 0.175584 -0.353538 -0.027370 0.054563 -0.783412 0.477674 -0.122523 0.000385 0.024868 -0.577395 0.034125 0.071732 -0.321900 -0.466535 0.106624 -0.663715 0.335328 0.180746 -0.733178 0.192897 -0.046277 0.487868 -0.329660 -0.801233 0.005745 0.006628 0.620646 -0.070353 0.127008 0.504099 -0.010160 0.102109 0.013534 0.264743 -0.165303 0.012215 -0.121729 0.334021 0.050115 -0.326040 -0.185415 -0.208794 -0.015007 -0.097601 0.198617 -0.049672 -0.123923 -0.039707 -0.286732 -0.351495 0.095195 0.251697 -0.001931 -0.052119 1.216974 0.320036 0.422588 -0.412764 0.174077 -0.279182 0.515081 0.276408 -0.134030 -0.023116 0.085624 0.216300 0.085159 0.380946 0.116805 0.245085 0.335975 0.181481 -0.597217 0.332376 0.182582 -0.047967 -0.353001 -0.003856 0.188236 -0.256394 0.118358 0.305694 0.063072 -0.107958 -0.089277 -0.201047 0.061031 -0.029581 -0.127723 0.137695 0.015211 -0.579969 -0.080653 0.060761 
50 0.001419 -0.156397 -0.155791 -0.788552 -0.292166 0.245578 -0.276583 -0.441049 -0.458173 0.118178 -0.488171 -0.850864 0.387919 0.616103 -0.098119 0.377405 0.235217 0.439255 0.865363 0.337976 -0.213061 0.349301 -0.085684 -0.258371 -0.530785 -0.067288 0.007444 -0.279312 -0.157614 0.540116 -0.140986 -0.189415 0.022252 0.266030 -0.023565 -0.178370 -0.107880 -0.018278 -0.281636 -0.235806 0.481208 -0.328292 0.056610 -0.274404 -0.255214 0.185477 -0.398381 -0.062200 0.098714 -0.218248 0.160085 -0.190045 0.109019 0.003766 -0.064149 0.249605 -0.047807 -0.485925 -0.216494 0.210648 -0.062909 0.004569 0.404410 0.254569 -0.104887 0.423635 0.206717 0.008533 -0.090759 0.267372 0.209996 0.064961 -0.100136 -0.360121 -0.334297 0.105605 0.313244 -0.003237 0.030242 -0.428741 0.071865 -0.129191 -0.467747 -0.479740 0.552945 -0.247899 0.191623 0.476325 1.012266 0.733209 0.027287 -0.139989 -0.346585 -0.123723 0.195852 0.419130 -0.325520 -0.377728 0.300714 0.179513 -0.131444 0.368589 -0.149520 -0.219259 0.001715 0.029591 -0.638290 0.381888 0.082592 0.491929 -0.145984 0.422482 0.003275 -0.411546 0.046174 0.107838 0.288551 -0.076806 -0.411032 -0.534254 0.143284 0.582694 -0.065514 -0.050187 -0.380225 -0.441087 -0.387645 -0.413818 
1198 -0.431605 -0.135971 -0.290559 -0.381078 0.099180 0.272710 -0.567312 -1.153405 0.058218 0.339674 -0.494338 -0.693365 -0.469490 0.643195 0.052692 -0.111204 -0.014213 -0.241472 0.885157 -0.454210 -0.121073 0.131568 -0.405844 -0.212484 0.101507 -0.236149 -0.151550 -0.414650 0.251306 -0.411493 0.027777 0.237167 -0.572385 0.243997 0.148833 -0.262613 -0.047841 -0.005259 -0.179474 -0.084726 -0.126075 0.171006 -0.156898 -0.255020 -0.091763 0.378499 0.581114 -0.243770 -0.326004 -0.306336 -0.072709 0.318560 -0.029637 0.367534 -0.401031 0.263795 0.221683 -0.024006 -0.083140 0.622206 -0.289572 -0.736864 -0.048559 0.167027 0.402910 -0.637047 -0.728086 0.280208 -0.128216 0.328107 0.053448 0.206271 0.649349 -0.304669 -0.302298 0.294222 0.609885 -0.177880 0.037160 -0.249921 -0.300644 0.209493 -0.898452 -0.114548 -0.230784 -0.265999 0.193721 -0.569528 0.789662 0.336498 -0.490431 -0.411193 -0.395365 -0.453743 0.460498 0.460065 -0.183681 -0.200021 0.083358 -0.304080 -0.000046 0.504608 0.259062 -0.210677 -0.114220 0.175804 0.012727 0.007987 0.101056 -0.099660 0.136785 0.165808 -0.331855 0.042724 0.115907 0.078632 -0.321826 -0.508630 -0.315336 0.182381 0.399893 0.211369 -0.042051 0.249251 0.488586 -0.025762 0.038113 0.301988 
858 -0.508542 -0.254525 -0.638152 -0.943523 -0.174220 0.125468 -0.307780 -1.346792 0.057819 -0.162805 -0.577349 -0.728118 0.445926 0.059930 -0.393303 0.246516 -0.163802 -0.076109 0.703425 0.079511 0.144715 0.672917 -0.351474 -0.108738 0.259263 0.084938 0.246924 -0.212961 0.061062 -0.329144 0.164448 0.127709 -0.075009 -0.217678 -0.726026 -0.394975 0.318667 0.212248 -0.174696 0.226027 0.015159 -0.351804 0.652255 -0.074341 0.565246 0.037756 0.262782 -0.102670 -0.338190 -0.599192 -0.117428 0.107573 -0.087421 0.106268 -0.571354 -0.155414 -0.470361 0.007682 -0.281788 0.355603 -0.480855 -0.532989 -0.589974 -0.470332 0.022745 0.137877 -0.287362 0.383758 0.215407 -0.078557 -0.259871 0.010151 -0.019156 -0.317524 -0.389080 -0.239151 0.563373 -0.307065 -0.205316 0.244270 -0.008842 -0.045248 -0.070000 -0.325879 0.208148 -0.076084 0.165834 -0.140064 0.966613 0.504174 -0.115298 -0.497386 -0.262543 0.305783 0.678909 -0.065276 -0.199649 0.192541 0.251811 -0.464116 -0.253604 0.201873 0.107743 -0.601804 -0.140370 -0.430071 -0.000942 0.212457 -0.238968 0.191976 -0.221610 -0.336977 -0.086897 0.032337 -0.080046 0.374010 -0.075705 0.054978 0.553677 0.082627 -0.167151 0.078012 -0.095885 -0.242196 0.471125 -0.142571 -0.140278 0.077284 
2858 -0.105404 -0.123679 -0.486793 -0.155797 0.245237 -0.213717 -0.416728 -0.192352 -0.022034 -0.440913 -0.150246 -0.232929 0.110088 -0.094445 0.358698 0.576144 -0.149154 0.048674 0.512239 -0.080840 0.017136 -0.722602 0.061070 -0.198912 -0.270256 0.043011 0.058869 -0.382403 -0.292489 0.256017 0.335421 0.146785 0.457030 0.553785 0.512802 -0.325102 0.116004 -0.301695 0.285278 0.286551 0.242667 0.399260 -0.089827 -0.061160 0.219349 0.294004 0.025382 0.017252 0.483151 0.238054 0.103854 0.677801 0.078823 0.002018 -0.272306 -0.166115 -0.239229 0.145602 -0.738230 -0.059738 -0.006183 -0.396788 -0.372479 0.281500 0.167454 0.236630 0.357646 -0.593121 0.721688 0.029083 0.215432 -0.154988 -0.120091 0.282788 -0.080664 -0.628637 0.033336 0.293533 0.094200 -0.101999 -0.540168 -0.113798 -1.217162 0.197437 -0.138663 0.443737 -0.318689 0.187524 0.633000 0.314311 0.061180 -0.079286 0.427752 -0.738315 0.268799 0.219272 0.290508 -0.733988 -0.419184 -0.657085 -0.226686 0.200721 -0.458368 0.162831 0.362577 -0.221100 0.199177 0.007688 0.153884 -0.613755 -0.147790 -0.064498 0.641363 0.390872 0.491536 -0.515797 0.082391 -0.530675 0.261817 -0.280458 -0.145364 -0.160349 -0.069188 -0.364168 0.409563 0.128390 -0.331300 -0.181293 
1210 -0.618041 0.084218 -0.045453 -0.273341 -0.023595 -0.465468 -0.607541 -0.624677 0.329096 -0.041711 -0.360207 -0.570729 -0.314413 0.067644 -0.344110 0.259475 -0.073740 0.042331 0.221688 -0.199592 -0.331120 0.554057 -0.446432 -0.091258 0.117999 0.223731 -0.260430 -0.557129 0.306900 0.104664 0.100601 0.048394 -0.339488 0.439908 -0.276422 -0.548929 0.120465 0.143646 0.391467 -0.058326 -0.003970 0.226792 0.372061 -0.446103 0.180088 0.420235 0.188216 -0.709358 0.019799 -0.438410 0.467690 0.608377 0.220827 -0.185528 -0.646719 -0.393145 0.326039 0.053397 0.233887 0.433938 0.259446 -0.541545 0.329456 0.265286 0.002713 0.029540 -0.202666 0.195095 0.366111 0.329899 0.222677 0.400504 -0.119881 -0.382967 -0.124788 -0.369642 -0.188896 0.087356 0.212501 0.420150 -0.593599 0.461805 -0.628692 -0.439659 0.002670 -0.520861 -0.288187 0.134921 0.501965 0.313958 -0.144421 -0.618137 -0.598565 -0.469762 -0.186341 0.167516 -0.233573 -0.314612 0.584512 -1.203085 0.301868 -0.015775 -0.086271 -0.073281 0.227674 -0.256887 0.200996 0.065882 0.656466 -0.692499 -0.596737 -0.164969 0.150233 0.311095 -0.251112 0.078021 -0.116902 -0.369232 -0.225578 -0.541201 0.088207 0.340451 0.082114 -0.287491 0.296488 0.178623 0.256072 0.746624 
589 -0.254386 -0.292744 -0.385234 -0.463508 0.004071 -0.100985 -0.387378 -0.811685 -0.137145 -0.249972 -0.047035 -1.022572 0.032939 -0.047473 0.086609 0.051970 0.093933 0.125766 0.914296 -0.143403 -0.239630 0.238694 -0.298202 0.435230 0.013451 -0.608651 0.228362 -0.055212 0.009301 0.159334 -0.183920 -0.486357 -0.887787 0.364223 -0.633218 -0.140836 -0.255038 -0.169120 -0.243430 -0.114510 0.525115 0.145921 0.104856 0.487492 0.269078 0.281832 0.178819 -0.532936 -0.291758 -0.270865 -0.037177 0.135754 0.008003 -0.149881 -0.738840 0.172612 0.286199 0.450273 -0.264612 0.651103 -0.114385 -0.001841 -0.084568 0.149392 0.161353 -0.034781 -0.188509 0.401676 0.546047 -0.081508 -0.116812 0.690949 0.076341 -0.623306 -0.196887 -0.683703 0.148655 -0.669531 -0.049612 0.180467 -0.028571 0.361042 -0.481343 0.042173 0.050855 0.102967 -0.053501 0.377150 0.791165 0.237396 -0.537433 -0.294112 -0.114836 -0.088312 0.323617 0.058590 -0.124453 -0.011791 0.433240 0.105959 -0.407109 0.588185 0.350416 -0.111565 0.112067 0.264405 -0.117331 -0.104391 -0.136983 0.145051 -0.186257 -0.422623 -0.457829 0.008440 -0.060871 0.448608 0.495688 0.038269 -0.018269 -0.302770 -0.022390 0.495452 0.348802 -0.192102 -0.086239 0.104324 -0.354036 -0.191580 
1 0.344088 -0.202732 -0.486956 -0.034615 0.114138 0.015962 -0.330681 -0.740184 -0.888222 -0.294278 -0.714115 -0.732318 -0.096880 -0.244468 -0.393650 0.199850 -0.270405 -0.117951 0.969711 0.176643 0.262686 0.620545 -0.219386 0.311575 0.116121 0.021998 0.314853 -0.415355 0.210492 0.542183 -0.353361 -0.789316 -0.007669 -0.034485 0.386826 0.144275 -0.176003 -0.439856 -0.475372 0.094484 -0.367571 0.868283 -0.147218 -0.123091 -0.372609 0.439765 0.185859 -0.494226 0.504825 -0.846362 0.360323 0.170945 -0.016352 0.432605 -0.471411 0.173001 0.072057 -0.694813 0.151075 -0.054754 0.022279 0.374868 -0.141918 0.162993 0.260772 0.628516 0.283498 -0.192194 -0.188077 -0.559986 0.262921 0.163804 -0.007079 -0.097812 0.032251 -0.034389 0.907506 -0.195155 0.032819 0.346873 -0.431647 -0.275381 -0.427548 -0.173616 0.009930 -0.135835 0.308989 0.540991 0.741016 0.350528 -0.500360 -1.034488 0.179031 0.446278 0.054635 0.304177 -0.427738 -0.102830 0.590470 -0.022850 0.076886 0.359967 -0.312662 -0.463731 -0.304153 0.023694 -0.470429 0.222553 0.336451 0.298732 -0.019630 -0.278335 -0.189131 0.085263 0.037711 0.218264 -0.012634 0.240211 -0.517802 -0.056260 -0.071453 0.177614 -0.349914 0.142229 0.028507 -0.503493 0.078734 -0.076127 
4993 -0.042933 -0.086595 0.214109 0.130775 -0.010110 0.170695 -0.030628 -0.760496 0.106969 0.252984 0.071821 -0.537051 0.204031 0.496816 0.459954 0.549452 -0.122335 0.235186 0.712750 -0.520202 0.048618 -0.476584 -0.009047 0.069540 0.237260 -0.124333 0.151660 -0.886307 -0.021871 -0.253258 -0.463891 0.374865 0.021395 -0.302699 -0.310818 -0.051193 0.343459 -0.197279 0.484328 0.312501 -0.120044 0.136364 -0.190869 -0.605181 -0.102965 0.259686 0.280088 0.157308 0.536764 0.457350 0.188259 0.308033 -0.530521 0.151125 -0.033152 0.088782 -0.515619 -0.156724 0.323830 -0.165402 -0.036772 0.044910 0.249423 0.516769 0.467656 0.940049 -0.170615 0.243662 0.344619 0.000838 -0.020919 -0.279335 0.301036 -0.130566 -0.206531 -0.520623 0.048650 -0.103319 0.558931 0.319640 0.438062 0.217593 -0.973871 0.166408 -0.581335 0.041082 0.215326 0.582681 0.220860 -0.058549 -0.310510 -0.255057 -0.387394 0.336018 -0.402079 0.340756 -0.245407 -0.298854 -0.277429 -0.086946 0.265850 0.405687 -0.340919 0.547882 -0.276833 0.544181 0.334481 0.276417 -0.565679 -0.311712 0.335845 0.114683 -0.052244 0.286924 0.266435 -0.279990 -0.131912 0.488272 0.539831 -0.010910 0.157219 -0.212437 0.091808 -0.203199 0.173841 0.238702 0.287086 0.316863 
480 0.038628 0.301985 -0.117104 0.451508 0.409948 -0.692928 0.001431 -0.648923 -0.814388 -0.239215 -0.288212 -0.497661 0.318636 0.061606 -0.060689 -0.018697 0.144506 0.393682 0.982017 0.055872 -0.425714 0.198058 -0.062903 -0.044779 -0.180810 -0.204197 0.248089 0.110022 -0.100031 -0.011389 0.162847 0.263197 -0.562255 0.370996 -0.393652 -0.074383 -0.299804 0.162724 0.016505 -0.618944 0.189733 0.374233 -0.410018 -0.046520 -0.143713 0.643068 -0.103044 -0.517824 -0.525315 -0.176756 0.312177 0.361829 -0.268257 0.019021 -0.608152 0.655764 0.396275 -0.166183 -0.276370 0.278323 0.101143 -0.098920 -0.037599 0.003164 0.300547 0.549704 -0.354664 0.133168 0.310851 -0.104233 0.166061 0.369252 -0.119814 -0.916308 -0.174531 -0.057318 0.210876 -0.634758 -0.105892 0.222106 -0.007691 0.227721 -0.422726 -0.005013 0.399731 -0.200024 -0.113573 0.399754 1.043942 0.374938 -0.241927 -0.765953 -0.129472 -0.396338 0.197316 -0.086676 -0.196243 -0.055008 0.152730 -0.509774 -0.150700 0.507410 0.355003 -0.190801 0.382668 0.162444 -0.288690 -0.345129 0.011152 0.049617 -0.457932 -0.111861 -0.043905 -0.149223 0.193125 0.574715 0.719835 -0.180305 0.231968 -0.419041 0.493966 -0.385474 -0.206015 -0.445860 0.012844 -0.300254 0.038339 0.043988 
2028 0.371052 0.185414 0.268825 0.013909 0.073754 0.030408 -0.075654 -0.885193 0.065151 -0.067762 -0.204415 -0.819906 -0.029576 -0.284740 -0.437533 0.272550 -0.683944 0.003350 0.946032 -0.085977 -0.029569 0.171876 0.178958 -0.560990 0.289931 -0.611428 0.186179 -0.238161 0.227694 0.042871 -0.060446 -0.177126 0.132923 0.451890 0.559282 0.256143 0.041159 0.484257 0.288154 0.219644 -0.107385 0.016573 0.720806 -0.316221 -0.190421 -0.444606 0.397495 -0.087606 0.187329 -0.291149 -0.306672 0.459106 -0.119439 -0.239886 0.008327 0.279950 0.855943 0.155707 0.344314 0.388876 0.068832 0.070547 0.097174 -0.177664 0.355796 -0.290346 -0.480086 0.189127 0.099839 0.019282 -0.023886 0.231484 0.355153 0.034975 0.182136 -0.313087 -0.223660 -0.002652 -0.256329 0.372447 0.396374 -0.744963 -1.373190 -0.623144 0.196115 0.712466 -0.298472 -0.539592 0.673232 0.186961 -0.112905 0.104287 0.132631 -0.085005 0.354166 -0.458375 -0.315842 -0.333079 -0.111580 -0.723348 0.494753 0.102504 -0.205284 0.294941 -0.122963 -0.087419 0.370695 -0.221446 0.166465 -0.396287 -0.679649 0.018950 0.204756 -0.261190 0.117839 -0.638861 0.328163 -0.415087 0.240380 0.138635 -0.147060 0.497092 0.318353 0.253760 -0.328305 -0.024440 0.416894 0.328421 
7153 0.039269 0.190635 0.058555 -0.159256 0.096869 0.728437 -0.161681 -0.634825 0.585855 0.272402 0.440284 -0.526875 0.536732 0.283282 0.073911 0.626339 -0.319507 0.606898 0.204081 -0.191359 0.385660 -0.440541 -0.074278 0.169894 -0.620995 -0.667321 0.141174 -0.922156 0.076801 -0.592457 -0.264920 0.188158 -0.101530 -0.252400 -0.085544 -0.518122 0.164208 0.122892 0.897600 -0.343660 0.802187 -0.070327 0.278889 -0.886381 0.137899 0.116324 0.278262 -0.296114 0.231083 0.042313 0.388296 -0.142803 -0.570437 0.530033 0.225650 0.117442 -0.479813 -0.488266 -0.042397 -0.196924 -0.305546 -0.043136 -0.331181 -0.338368 0.189277 0.387333 -0.008268 0.103528 0.228973 -0.311743 -0.270167 -0.389495 0.430681 0.245708 -0.133287 -0.404593 -0.063078 0.081400 -0.077103 -0.218671 0.247935 0.341570 -0.779047 -0.279736 -0.641461 -0.479703 0.080445 -0.160867 0.149481 0.326740 -0.690269 -0.545585 0.027780 -0.203902 -0.288380 0.104788 -0.471757 -0.187899 0.027398 -0.540619 0.432534 0.322677 0.017107 -0.570762 0.222620 -0.033689 0.271396 0.044599 -0.339352 0.089455 0.061502 0.646102 0.498932 0.415597 0.218983 0.268276 0.369343 0.244322 -0.072218 -0.041362 -0.304019 -0.055603 0.199706 0.200775 -0.061165 0.116822 0.333234 0.482863 
47 -0.003753 -0.210310 -0.361888 -0.594455 -0.165918 0.506788 -0.222068 -0.992613 -0.037260 -0.058745 0.167627 -0.850139 0.488831 0.020252 -0.214312 -0.200738 0.121104 -0.090740 1.389645 0.199401 -0.038084 0.518001 0.025828 -0.075049 0.301130 -0.875030 0.220093 -0.478191 -0.241848 0.106253 -0.118949 -0.219398 0.039752 0.162760 0.093875 -0.301682 -0.247622 0.202804 -0.562665 0.459368 -0.198222 -0.259555 0.021919 -0.266442 0.315302 0.487705 -0.386510 0.151435 0.041575 0.059304 0.601955 -0.262445 -0.487558 0.362144 0.037203 0.131556 -0.237441 -0.767403 0.231790 -0.015412 -0.324004 -0.076759 0.399088 0.312465 0.622562 0.253981 0.427326 -0.411227 -0.267851 -0.042316 0.208085 0.126647 -0.185874 0.035478 0.086360 -0.027186 0.261903 0.018384 0.318683 -0.495121 -0.022218 -0.291604 -0.767561 -0.447956 0.673537 -0.176566 0.399267 0.068882 0.919243 0.144195 0.345052 0.017001 -0.123547 -0.126875 0.683896 -0.152757 -0.335015 -0.487128 0.452843 0.361376 0.114967 0.585180 -0.168270 0.115928 0.133138 -0.084390 -0.360744 -0.315432 0.233324 0.343663 -0.319434 -0.096531 -0.058307 0.153274 0.529984 0.388675 0.441306 -0.279875 -0.660607 -0.328596 -0.223656 -0.047456 -0.006710 -0.233633 -0.737566 -0.080625 -0.364427 -0.271907 
457 0.114293 -0.310624 -0.009503 -0.228681 0.577575 -0.620660 -0.258017 -0.512613 -0.379804 -0.207986 -0.076957 -0.424625 0.182937 0.204546 0.186201 0.019788 -0.024138 0.246998 0.803475 0.371578 0.089346 0.435372 -0.109286 -0.202575 -0.139200 -0.690149 0.573038 0.253029 -0.370530 0.408768 -0.146305 0.015911 -0.490579 0.358887 -0.248684 -0.400711 -0.221129 0.096468 -0.064854 -0.442084 -0.185916 0.533492 -0.377799 -0.216953 0.100836 0.668169 -0.147611 -0.040956 -0.295098 -0.119095 -0.269904 -0.167045 -0.183203 0.603822 -0.308239 0.270697 0.317358 -0.033603 0.190001 0.285333 0.391406 -0.677257 -0.032592 0.389113 0.219862 0.102863 0.038884 0.449701 0.344476 -0.110568 0.028758 0.087884 -0.365533 -0.591983 0.079264 0.170352 0.442176 -0.493184 0.194178 0.366364 0.113552 -0.223590 -0.557217 0.118825 0.355655 -0.514583 -0.082140 -0.214951 1.104912 0.545784 -0.174579 -0.779266 -0.101511 -0.104384 0.791403 -0.163859 -0.239663 -0.361616 0.328470 -0.333951 -0.392610 0.496489 -0.332907 -0.359975 0.111486 -0.491933 -0.648075 0.094994 -0.329965 0.403080 -0.544818 -0.118627 -0.225978 0.036530 -0.167883 0.292559 -0.017926 0.463299 0.209883 -0.240227 0.042222 -0.096226 -0.217840 -0.474975 -0.345950 -0.040427 -0.449816 0.147795 
608 -0.572150 -0.001483 -0.249505 -0.468895 0.186711 -0.020681 -0.361529 -1.597593 -0.024900 -0.023387 -0.022892 -0.370333 0.320973 -0.111699 -0.656713 -0.249775 -0.247431 0.110115 0.632784 0.418424 -0.119672 0.353282 -0.204216 0.234744 0.079366 -0.157318 0.234688 -0.216940 0.375913 0.127080 0.098927 0.067643 -0.254335 -0.175855 -0.280262 -0.829394 -0.052594 -0.306318 -0.140775 -0.004525 0.227929 -0.122264 -0.439726 -0.253116 0.511612 0.305541 0.031304 -0.158134 -0.035558 -0.662497 -0.386571 -0.000063 -0.408251 -0.476555 -0.065967 0.173967 -0.024778 0.295363 0.072231 -0.016875 0.131748 -0.580930 0.043027 -0.125866 0.274594 0.265723 0.184937 -0.171438 0.589553 -0.161317 0.146322 0.235018 0.325325 -0.465136 0.203775 -0.113575 0.266625 -0.364610 -0.095230 0.349887 0.384481 0.171697 -0.139948 -0.645695 0.406473 0.058597 -0.217944 0.011621 0.794344 0.581931 0.338036 0.105688 0.252297 -0.139647 0.581528 0.221437 0.031896 -0.107845 0.228560 0.150114 -0.292576 0.765914 -0.095729 -0.351248 0.467370 -0.439986 -0.406760 -0.139303 -0.137898 0.661516 -0.386919 -0.129038 0.010323 0.204895 -0.432452 0.525305 0.475942 0.003098 -0.146816 0.081763 0.094205 0.845380 0.010087 -0.235513 -0.205644 0.006900 -0.198147 -0.665727 
5952 -0.414755 -0.546154 0.334414 0.232085 -0.118640 0.214761 0.159272 -1.106328 0.276468 -0.182714 -0.156514 -0.288493 0.059131 0.394614 0.657077 0.571220 -0.807656 0.461062 0.691195 -0.387202 -0.323395 -0.211245 0.092255 -0.103514 -0.106162 -0.455050 0.218578 -0.890646 0.635497 -0.841057 -0.282685 0.026726 -0.231222 -0.073679 0.033714 -0.245585 0.296627 -0.431308 0.439826 0.113596 0.240910 0.083892 0.367569 -0.169160 0.022162 0.371533 0.197926 -0.128994 -0.047208 0.557679 0.142544 -0.074907 -0.475354 -0.179092 -0.001956 0.086815 -0.596717 -0.452321 0.070063 0.053892 0.350156 -0.485728 -0.172799 -0.122751 -0.226404 0.892238 -0.077118 0.185564 -0.125427 -0.190628 0.082020 -0.586968 -0.104548 -0.037167 -0.298354 -0.785907 -0.117648 0.193631 -0.017313 0.269097 -0.081312 0.420869 -0.843414 0.343244 -0.445416 0.431034 -0.171850 0.238774 -0.029672 -0.054993 -0.703824 -0.354621 0.154440 0.176456 -0.174089 -0.214592 -0.053686 -0.341012 0.193400 -0.145151 0.763194 0.620409 -0.614024 -0.316438 -0.203759 0.609851 0.152514 0.212064 -0.031143 0.168342 0.104628 0.402576 0.334754 0.007498 -0.023233 0.466354 -0.248522 0.197075 0.216137 0.340889 -0.242013 0.195920 -0.230988 -0.042261 0.006138 -0.242303 -0.223655 -0.176778 
150 0.151244 0.028360 -0.119406 -0.294653 -0.053821 0.034294 -0.302684 -0.852749 -0.440510 0.001925 -0.554354 -0.085821 -0.392964 0.243018 -0.312451 -0.173620 0.465502 0.539323 0.772505 0.340388 0.166069 0.187799 -0.134993 -0.331908 0.069702 -0.160887 -0.130166 -0.014368 0.094140 0.192035 -0.516954 -0.190800 -0.077089 0.703739 -0.492089 -0.053315 0.023337 0.208910 0.007268 0.492835 -0.328533 0.434013 -0.294381 -0.523704 -0.149860 0.309501 -0.029310 -0.627851 -0.302104 -0.574196 0.478094 -0.445387 -0.242340 0.005233 -0.235693 0.168804 -0.064119 -0.397100 0.445346 0.061047 -0.015087 -0.089860 -0.073390 0.312887 -0.199604 0.434177 0.660383 -0.001172 -0.215807 0.235737 0.044587 0.407229 -0.099316 -0.677457 0.107716 -0.104748 0.653376 -0.222089 -0.138175 -0.535564 -0.240285 0.086952 -0.698693 -0.632479 0.648633 -0.056482 0.468282 0.135039 1.070393 0.168493 -0.245411 -0.466621 -0.192359 -0.186660 0.522396 0.024530 -0.058582 -0.515148 -0.358698 -0.129864 -0.398556 0.117447 -0.087834 0.182151 -0.262756 0.167678 -0.624746 0.050349 -0.314313 0.487105 -0.083590 0.015709 -0.290298 -0.202735 0.413203 -0.253235 0.017790 0.147954 -0.286304 -0.575963 -0.516533 -0.184986 -0.223148 0.280275 -0.587824 0.057615 0.005916 -0.281032 
2762 0.421873 -0.062098 -0.238629 -0.246758 -0.108938 0.380286 -0.522914 -0.335610 0.699201 -0.056423 -0.564651 -0.489360 0.599967 -0.522880 0.579470 0.402562 -0.475953 -0.478953 0.536634 -0.000686 -0.382187 -1.026378 0.054644 -0.146583 -0.326583 -0.603765 -0.141557 -0.559693 0.023369 0.272795 0.005557 0.060084 0.386510 0.321999 0.136548 -0.761183 0.096787 -0.024395 0.186768 -0.034191 0.416292 0.277220 0.453506 -0.421373 -0.518953 -0.265501 -0.227105 0.211450 0.252099 0.069686 -0.078759 0.052727 0.345253 -0.169314 -0.703847 -0.240576 0.299753 0.359015 -0.398020 0.413685 0.576289 -0.435033 -0.054250 0.445536 0.387824 -0.103839 -0.838475 -0.603054 0.710939 -0.205621 0.461857 -0.345409 0.215629 -0.564166 0.019058 -0.270926 0.341944 0.265128 -0.021695 -0.419728 -0.529060 -0.500568 -1.059283 0.069340 0.149863 0.118387 0.143888 -0.214137 0.517703 0.395901 -0.255690 -0.000419 -0.047454 -0.526171 -0.131720 0.036083 -0.086078 -0.036037 -0.405033 -0.768172 0.118403 0.304131 -0.302092 0.145975 -0.226759 0.136533 0.539413 0.290410 0.167873 -0.295525 0.029462 0.013067 -0.287879 0.166475 -0.094265 -0.262867 0.354966 -0.155512 0.129224 -0.067604 -0.231551 -0.223251 0.550771 -0.357568 0.180365 -0.233947 0.127143 -0.674377 
4226 0.064369 0.384169 -0.154092 -0.101582 0.061423 0.009363 -0.641280 -0.365105 0.239933 0.156956 -0.361137 -0.053354 0.154466 0.286751 0.457436 0.639454 0.475885 -0.198168 0.930018 -0.111433 -0.260869 -1.059265 -0.557073 -0.549790 0.319216 -0.461533 -0.130073 -0.527448 1.016431 -0.052720 -0.902449 0.044372 0.436443 -0.062828 -0.018520 0.041768 -0.081350 0.694796 0.285780 -0.523859 -0.435446 0.121464 -0.187993 -0.270221 -0.209151 -0.199631 0.119333 -0.204601 0.373020 -0.174137 0.096085 -0.057282 -0.801226 -0.110126 -0.185822 -0.511120 -0.700339 0.183275 -0.323827 -0.286820 0.138239 0.029644 0.529895 0.203786 0.605864 0.516655 0.137171 0.022481 0.460226 0.041262 -0.480436 0.048262 -0.561936 -0.075494 -0.143309 -0.694279 -0.094788 0.031031 0.443254 0.379534 -0.290906 0.150254 -1.128099 -0.353442 -0.443864 0.388599 0.369194 -0.015575 0.214138 0.403132 0.072779 -0.125412 0.238077 -0.144772 -0.050887 0.735147 0.081974 -0.433210 -0.009948 0.255957 -0.023725 0.245524 -0.143634 -0.171291 -0.067681 -0.098317 0.032725 -0.220170 -0.412740 -0.063138 -0.529577 0.551690 0.276831 -0.192997 0.190381 0.085201 0.200372 0.413600 0.241066 0.496958 0.299186 -0.020150 -0.065078 -0.476495 0.032825 0.233605 -0.573379 0.272186 
1270 0.207644 -0.018114 -0.136496 -0.186839 0.002267 0.020605 -0.243888 -0.537136 -0.238770 0.193047 -0.716885 -0.993406 -0.157172 0.050396 -0.064426 0.182339 -0.782033 0.297415 0.143743 -0.147268 -0.338217 0.461901 -0.357797 0.453127 0.443857 -0.617659 -0.001804 0.037752 0.720300 0.203821 0.354984 0.024294 -0.566137 0.127330 -0.516346 -0.013101 0.004423 0.395611 0.465372 -0.068763 0.544932 0.415531 0.147252 -0.442225 -0.224278 0.861881 0.426328 -0.312045 -0.809317 -0.027005 0.217129 0.172936 -0.159253 0.374768 -0.123682 -0.657093 -0.234089 0.086712 -0.320668 0.488090 0.198100 -0.347222 0.021166 0.240689 0.096281 0.272272 -0.449638 -0.328873 0.131503 -0.146578 0.029053 -0.657917 0.208008 -0.538267 -0.455965 -0.314681 -0.169621 -0.315070 0.231209 0.030149 -0.366313 -0.302775 -1.295458 -0.516664 -0.451550 -0.386852 0.138887 0.252163 -0.138038 0.760881 0.190335 -0.308822 0.055739 -0.507672 -0.024666 0.087622 -0.169571 0.334997 -0.017755 -0.711436 0.053351 0.262293 -0.344014 -0.130972 0.345466 -0.426670 -0.177004 0.042533 0.150492 -0.596867 -0.467145 0.174449 0.005317 0.171953 0.219308 0.048535 -0.154683 -0.112216 -0.123417 -0.075500 -0.379656 0.307856 0.329148 -0.105405 0.286401 0.006617 0.335795 0.189072 
32 0.295566 -0.282238 -0.026480 0.136882 -0.527347 0.106359 -0.386310 -0.878879 -0.168310 0.041486 -0.113355 -0.050887 0.591738 0.132026 -0.235090 -0.071965 -0.388957 0.557955 0.950548 -0.530388 -0.143667 0.468747 -0.518335 -0.050564 0.279707 0.335660 -0.206805 -0.609273 0.226655 0.141309 -0.055220 -0.452229 -0.341361 -0.321703 0.302898 -0.649063 0.012992 -0.062197 -0.364207 0.394134 0.292289 -0.021123 0.417886 -0.369012 -0.175445 0.506292 -0.162787 -0.746963 0.067613 -0.504708 0.568632 -0.432212 0.023502 0.081764 -0.226468 0.043708 0.187179 -0.652021 -0.045244 0.045594 0.154789 0.525370 0.252762 -0.161632 0.245287 0.321169 0.223406 0.269336 -0.050269 0.142430 -0.004862 -0.135365 -0.476262 -0.023455 0.288958 -0.245152 0.618686 -0.138467 0.488934 -0.433790 0.022329 -0.410949 -0.772637 -0.464563 0.841934 -0.083360 0.542298 -0.366559 0.791583 0.359422 -0.274983 -0.607165 -0.171241 -0.012883 0.318445 -0.097647 0.405146 -0.331820 0.118559 0.195987 -0.118961 0.322092 -0.096557 -0.555853 0.265695 -0.090878 -0.275426 0.253439 0.636087 0.961444 -0.264926 -0.208106 -0.093275 -0.176310 0.200791 0.394280 0.485850 -0.241637 -0.552412 -0.205299 0.182332 0.060578 -0.338687 0.494330 -0.177208 0.027213 0.286187 -0.408795 
3578 0.372037 0.244449 -0.217472 -0.380127 0.024376 0.188618 -0.385223 -0.838605 0.287868 0.243791 -0.876840 -0.742243 0.200387 -0.129543 0.175541 0.354635 0.516170 0.406793 0.173400 -0.298481 0.270902 -0.579345 -0.321478 -0.125103 0.120183 -0.451457 -0.027480 -0.735333 -0.223213 -0.709445 -0.323985 0.294034 0.140619 0.163500 0.088052 -0.168614 0.035616 0.277402 0.480069 -0.190591 -0.085678 0.091995 0.818817 0.023313 0.313131 0.315665 0.034318 -0.141601 0.116733 0.368995 0.138352 0.773797 -0.366085 0.031362 -0.540534 -0.292509 0.446980 0.153954 0.146872 0.225840 0.189777 -0.065461 -0.271953 -0.286592 0.356190 0.261217 0.126224 -0.015017 0.853320 0.424459 0.175795 0.294540 0.390603 -0.119023 -0.144805 -0.272666 -0.113525 -0.142667 -0.110024 0.063467 0.312777 0.384391 -0.944978 -0.308337 -0.673020 0.651945 -0.096855 -0.312160 0.400139 0.689943 0.444326 0.164966 0.115213 0.130303 0.024794 0.736534 -0.158802 -0.118531 0.343179 -0.914201 0.211630 0.397496 -0.534981 0.288262 0.374358 0.450599 0.271906 0.585577 -0.295480 0.122964 0.244553 0.021151 0.500808 -0.236515 -0.162889 -0.302873 -0.118203 0.067313 -0.160366 0.223662 0.108245 -0.638069 0.551643 -0.171730 0.382472 -0.316240 0.060725 -0.115183 
364 -0.077608 -0.328916 -0.565971 -0.112210 -0.046492 -0.621422 -0.055597 -1.076147 0.043961 -0.165208 -0.209375 -0.496037 0.072612 0.512902 -0.478507 -0.170727 -0.078562 0.116563 0.789725 0.046144 -0.074234 0.369877 -0.627075 0.280797 0.038780 -0.272096 0.240259 0.273086 -0.366378 0.028979 -0.647479 -0.708638 -0.667680 0.378650 -0.516251 0.273195 0.101400 0.052304 0.431445 -0.277142 0.086635 0.573651 -0.540067 -0.525802 0.460758 0.174285 -0.219493 -0.452473 -0.009779 0.071941 -0.321069 -0.038148 -0.364115 0.786838 -0.378294 0.328646 -0.252870 0.061045 -0.055574 -0.368691 0.290490 -0.198609 -0.322628 0.445628 0.051573 0.730804 -0.086205 0.345986 0.396635 0.335692 0.635037 0.252714 0.276406 -0.673261 -0.091229 -0.267181 0.219636 -0.215699 0.472069 -0.287773 0.147554 -0.162066 -0.676387 -0.364630 0.474196 -0.146827 0.139693 0.170483 1.101370 0.048912 -0.740976 -0.119947 -0.012243 -0.191225 0.361768 0.048207 -0.144419 0.128038 0.363244 -0.197607 0.411502 0.283725 -0.013079 -0.316278 0.385394 0.071857 0.108610 -0.200022 0.003530 0.566366 -0.093995 0.035628 0.062756 -0.108887 0.109561 -0.248219 0.430633 0.039215 0.343307 0.158882 0.045895 -0.252085 -0.090662 0.083338 -0.328632 -0.237795 0.287695 -0.227948 
4306 0.291206 0.214260 0.261285 -0.062445 0.461237 -0.085417 -0.206179 -0.765694 0.002188 -0.229423 -0.672572 -0.102415 0.413303 0.100104 0.398509 0.103432 0.134589 0.222136 0.526434 -0.249402 -0.181693 -0.847770 -0.581144 -0.119941 0.331512 -0.341178 0.153614 -0.612099 0.706010 -0.252895 -0.417261 0.670536 0.349902 0.155456 0.028092 -0.732407 -0.337917 -0.195082 0.547623 0.196530 -0.145702 -0.359684 -0.029321 0.402424 -0.119213 0.152479 0.324616 -0.410918 -0.049684 -0.247273 0.483385 0.173656 -0.274557 -0.602433 -0.269355 0.177669 0.220767 -0.253171 0.363369 -0.019631 0.198564 0.119773 -0.331129 0.777067 0.633122 0.722303 -0.448414 -0.388400 0.612059 0.233088 -0.085627 -0.487981 0.035609 0.039012 0.608658 -0.321808 0.225302 -0.058070 0.563490 0.279599 -0.043582 0.184195 -0.929918 0.458110 -0.164367 0.324925 0.144409 0.199974 0.537390 0.044801 0.124883 -0.282101 0.189459 -0.426421 0.212609 0.003969 -0.152545 -0.457246 0.360544 -0.247800 0.634744 -0.224808 -0.200425 -0.520803 0.174023 0.201684 -0.064406 -0.087420 -1.204507 -0.392123 -0.214846 -0.132882 0.373253 -0.135029 0.223176 0.210077 -0.272148 0.676018 0.294504 0.426795 0.217079 0.196000 -0.101237 -0.405812 0.595198 0.587603 0.426871 -0.138335 
588 -0.200557 -0.152927 0.023396 -0.413863 -0.292376 0.240635 0.094890 -0.911832 -0.240357 0.145586 -0.108563 -0.617075 0.452732 0.762544 -0.585205 0.304945 -0.474932 0.397851 0.627656 0.509072 0.292258 0.241935 -0.581315 0.033329 0.012673 -0.449526 0.267965 0.353015 0.012174 0.313864 -0.191740 -0.146171 -0.792643 0.295370 -0.666113 -0.153000 -0.314910 -0.272688 0.028722 -0.392874 0.540245 0.000936 -0.078348 -0.009324 0.159157 -0.103812 0.105821 -0.329588 -0.340441 0.099994 -0.299351 0.015893 -0.047082 0.075762 -0.220319 0.165665 -0.008579 -0.135994 0.160326 0.363115 0.067773 -0.291617 -0.601647 0.079908 0.100994 0.114496 -0.047132 -0.561834 0.228943 0.170747 0.265736 0.452514 0.013766 -0.501871 -0.236742 -0.478321 0.319694 -0.757098 -0.061934 0.114603 0.241958 0.534173 -0.412882 -0.143652 0.517078 0.083531 -0.386032 0.227135 1.182381 0.153424 -0.447853 -0.433381 0.121513 -0.198655 0.395825 -0.011680 0.468789 -0.241659 -0.393092 -0.466238 -0.017494 0.556461 -0.119757 0.081353 0.093835 -0.175232 0.061185 0.049613 -0.461574 -0.191317 -0.363741 -0.186345 -0.077868 0.355610 -0.162316 0.899832 0.659838 0.062618 -0.352047 -0.077836 -0.268214 -0.079970 -0.095940 0.068665 -0.183853 -0.457495 0.223131 -0.020597 
58559 -0.241326 0.524483 -0.040478 -0.458485 0.804770 0.901845 -0.026988 -1.221445 0.460717 -0.324809 0.270328 -0.291906 0.223784 0.774911 0.254582 0.212992 0.074369 0.807751 0.360628 -0.238693 -0.174763 0.314059 0.061678 0.211027 0.317834 -0.863637 -0.171794 -0.821110 -0.330357 0.475481 -0.169559 0.379083 0.264578 -0.406884 0.161661 -0.039157 0.646828 -0.667157 -0.141621 -0.313754 0.226805 -0.237902 0.260305 -0.878269 0.588783 -0.191400 0.364938 -0.458446 0.247285 -0.362113 -0.446759 0.254715 -0.010448 -0.280503 0.142186 0.615128 -0.020432 0.135947 0.345992 -0.418184 -0.158899 -0.150981 -0.132986 -0.483357 0.247252 -0.225734 -0.320372 0.145516 -0.074267 -0.690066 -0.354046 -0.588647 -0.031346 -0.076257 0.214539 -0.545488 -0.464927 0.292389 0.148926 -0.458100 0.237963 0.685307 -1.128452 -0.415057 -0.081909 -0.129694 0.116449 0.305824 0.276519 0.174170 -0.524925 -0.206633 0.384903 0.043510 -1.090718 -0.221578 0.292102 -0.090169 0.269357 0.008671 -0.177281 0.229768 0.473360 -0.033629 -0.316884 -0.387782 -0.335487 -0.267985 0.315455 0.259539 0.069547 0.255200 0.443644 0.293543 -0.801542 0.253648 0.069848 0.096121 -0.156620 -0.194241 -0.208602 -0.754837 -0.271437 0.067070 -0.029792 -0.207427 0.321131 0.134313 
1214 -0.290688 0.438492 0.184047 -0.340279 0.197784 0.021992 -0.389072 -1.179148 0.232153 0.415498 0.275721 -0.335462 0.281221 0.536929 -0.096980 0.078301 -0.463299 -0.276488 0.820203 -0.742524 -0.163521 0.214411 -0.351572 -0.101872 0.118609 -0.064154 -0.036398 -0.282830 -0.242620 -0.299900 0.155650 0.553709 -0.241280 0.286197 0.349269 -0.819955 0.065313 0.339172 -0.151475 0.221882 -0.060210 0.005867 0.412455 -0.147580 -0.501035 0.702836 0.287388 -0.253838 -0.425049 -0.277508 -0.362962 0.340334 -0.001093 -0.467750 -0.156921 0.199251 -0.032918 0.233749 0.498025 0.453673 -0.116801 -0.648039 0.158187 0.215548 0.089456 -0.197669 0.142923 -0.089933 0.134145 -0.398511 0.105468 0.088336 -0.232685 -0.036427 -0.175870 -0.174054 0.444808 -0.792500 0.866495 -0.212412 -0.254171 0.146916 -0.693945 -0.773169 -0.074194 -0.169504 -0.548874 0.423162 0.579757 0.706581 0.494397 -0.176267 0.317085 -0.073500 -0.220848 -0.110257 -0.682853 -0.246057 0.634476 -0.478708 0.420775 0.653867 0.301477 -0.738432 -0.384535 0.251338 0.331912 0.324733 0.480599 -0.106407 0.012424 0.388384 0.436372 -0.012062 0.400050 0.633479 0.228342 -0.217301 -0.147167 0.334982 0.147170 0.389280 0.272924 -0.468106 0.181960 0.063768 -0.505641 0.294165 
1197 -0.110473 0.021094 -0.349858 0.012648 0.079568 -0.178760 -0.244598 -1.044215 0.178635 0.179203 -0.384080 -0.602973 -0.426400 0.429918 -0.224631 0.120912 0.020002 -0.296428 0.102762 0.006103 -0.116493 0.165827 -0.229071 0.096943 0.315409 -0.588935 0.332345 -0.109020 0.204577 -0.764309 -0.116488 -0.014829 -0.126327 0.723030 -0.112618 0.326674 0.002630 -0.437426 0.163320 0.275745 0.146772 0.062030 0.669279 -0.061098 -0.505518 0.119280 0.509454 -0.148206 0.307820 -0.012267 0.157115 0.402826 0.009020 -0.295645 -0.523765 0.256689 0.037618 -0.119469 -0.417441 0.919640 0.488458 -0.907608 0.479012 -0.397165 0.517216 -0.408494 -0.008113 0.593447 0.125990 0.670907 -0.569516 -0.226234 0.425963 -0.212031 0.165142 -0.075356 0.611676 -0.230279 0.863535 0.326651 -0.475540 0.028171 -0.777461 -0.191404 0.389218 -0.141361 0.003428 -0.432471 0.444045 0.322797 -0.492286 -0.650048 -0.351166 -0.213924 0.295924 0.159025 -0.852607 0.213090 -0.020059 -0.189069 0.659003 0.859051 0.425613 -0.188719 -0.253893 -0.163627 0.289540 0.481424 -0.149352 -0.353969 -0.221350 0.382352 -0.220816 0.489920 -0.043317 0.441916 0.189903 -0.198801 0.005045 -0.617025 0.357724 -0.444774 0.296870 -0.062532 0.290563 0.008492 -0.553224 0.881699 
1193 -0.293066 -0.040309 0.285006 -0.669189 -0.360873 0.171948 -0.202315 -0.923684 0.349943 -0.845997 -0.138620 -0.524182 0.482290 0.304166 -0.422142 0.708129 -0.024658 -0.178135 1.068282 0.005261 -0.054498 0.454064 -0.704946 -0.438449 0.244489 -0.557881 0.220869 -0.291479 0.233489 0.126675 -0.079798 0.367040 0.067271 0.411675 -0.250499 0.177489 0.236281 0.044175 -0.151005 -0.039590 -0.323630 -0.535618 -0.150057 -0.729596 -0.063818 -0.508471 0.112173 0.142167 -0.532486 0.027733 0.294504 0.453277 0.559409 -0.096203 -0.420213 -0.376775 0.000754 -0.101986 0.188307 0.452372 0.075057 -0.683489 0.341274 0.141561 0.443687 -0.222319 0.077642 0.292840 -0.185072 0.120761 0.038015 0.063557 0.249550 -0.378348 -0.098388 0.037033 0.350864 -0.634872 -0.055043 -0.147863 -0.420257 0.263919 -0.488037 0.162889 -0.449426 -0.529049 -0.564776 -0.510759 0.581721 0.537944 -0.031156 -0.482254 -0.393528 -0.317901 0.072713 0.195876 -0.829078 0.621504 -0.429712 -0.378476 0.062352 0.360181 0.528732 -0.437069 -0.122990 -0.001915 -0.016191 0.496404 0.279862 -0.548618 -0.301820 -0.003436 0.205281 -0.332183 0.432865 0.373745 0.097277 0.169265 -0.424430 -0.301369 -0.089650 0.138774 0.458194 -0.294945 0.171657 -0.402648 -0.262671 -0.354558 
79132 -0.262093 -0.007554 0.308003 -0.538800 0.135768 0.080721 -0.354214 -1.216355 0.024493 0.645737 0.719841 -0.604819 0.274184 -0.342813 -0.164154 0.035374 0.092468 0.123903 0.537315 -0.109711 -0.407182 -0.240959 -0.208518 -0.411901 -0.229192 -0.945769 0.713941 0.015922 -0.223020 0.033167 0.246202 0.505332 -0.345131 0.046731 0.123601 -0.407892 0.135804 -0.810199 0.199022 -0.391194 0.794212 0.485954 -0.092780 -0.319004 0.038689 0.141285 -0.159039 -0.420599 0.172761 -0.794592 -0.122442 0.277975 0.377952 -0.105461 -0.027599 0.230518 -0.902866 -0.323712 0.259110 -0.565132 -0.117072 0.572733 -0.326293 -0.435945 0.038265 0.081412 -0.122895 -0.497832 0.449756 -0.856855 0.170272 -0.745440 0.141608 0.015963 -0.095068 -0.325142 0.534126 0.571793 -0.204520 0.110705 0.179337 0.597848 -1.135908 -0.677694 -0.297983 0.134402 0.271026 0.353507 0.334141 -0.482737 -0.594813 0.304373 -0.145852 -0.425788 -0.771364 -0.622092 -0.285122 0.122602 0.567979 -0.347379 -0.061171 0.159855 0.627830 -0.238891 0.208647 0.296392 0.022907 -0.821166 0.182176 0.072742 0.095802 0.056124 0.526668 0.523672 -0.710911 0.035865 -0.277548 0.591727 -0.194967 -0.044602 -0.059889 -0.538208 -0.375522 0.066729 0.701147 -0.054182 -0.305669 -0.121535 
1221 -0.226354 0.320036 -0.250244 -0.394768 -0.130295 0.470369 0.078279 -1.010954 0.359651 -0.492783 -0.296405 -0.011287 -0.092696 -0.463395 -0.236926 0.353878 -0.354500 -0.270555 1.170627 -0.410977 0.031730 0.083923 -0.568190 -0.024790 -0.050315 0.171275 0.267022 -0.114841 -0.188035 0.386376 -0.045851 0.566164 0.062424 -0.027812 -0.301518 -0.090486 -0.522779 0.025184 -0.045601 -0.208262 0.220895 -0.144384 0.539438 -0.232806 0.250224 0.194051 0.303673 -0.049661 -0.092119 -0.505747 -0.133746 0.244327 0.320986 0.012998 -0.640114 0.503745 -0.351959 0.517023 0.178826 0.695387 0.165815 -0.579576 0.154591 0.315522 0.608050 0.090752 0.346222 -0.043264 -0.101772 0.274811 -0.143276 0.103321 0.609198 -0.582360 -0.056251 -0.074765 0.819859 -0.271957 0.377839 -0.105546 0.137005 -0.303163 -1.460726 -0.503356 -0.199080 -0.041720 -0.726880 0.597892 -0.182335 0.366070 0.177247 -0.181464 -0.243773 -0.369394 -0.493375 0.044174 -0.490778 -0.368066 0.324243 -0.935336 -0.230418 0.209180 -0.082849 -0.584245 0.011169 -0.015085 -0.064325 0.007611 0.851624 0.058455 0.052438 0.343023 -0.065775 0.177235 -0.441411 -0.111474 -0.104954 -0.840768 -0.084654 0.014388 0.104049 0.544590 0.383970 -0.052278 -0.335495 0.506766 -0.018958 0.168351 
1089 -0.823246 -0.055657 0.179637 -0.470528 -0.482250 -0.302161 -0.293243 -0.900759 0.427110 -0.332097 -0.361937 -1.242540 0.069213 0.442966 0.029107 0.497025 -0.476099 0.057281 0.740565 0.317362 0.160753 0.428945 -0.261787 -0.337531 0.412909 -0.549057 -0.211657 0.176413 0.097397 0.147313 0.495633 -0.235145 -0.441979 -0.075051 0.331217 0.078789 0.144223 -0.037733 0.545272 -0.128054 0.164824 -0.314637 0.311032 -0.903710 0.291288 -0.061073 0.494362 -0.120759 -0.817418 0.152953 0.145099 0.236714 -0.057961 0.423637 -0.643607 0.221296 -0.484253 -0.028558 -0.166443 0.328894 0.261124 -0.256337 0.443913 -0.511274 0.045192 -0.129013 0.271990 -0.205754 0.072762 0.223218 0.157769 0.163103 -0.176416 -0.120682 -0.465285 -0.023020 0.995261 0.133902 0.134607 0.115800 -0.750793 0.034420 -0.643676 0.063445 0.147500 0.054006 0.020474 0.073690 0.624044 -0.017258 0.093809 0.056231 -0.481820 -0.213615 0.356832 0.268063 -0.418581 0.132550 0.107056 -0.060279 -0.211297 0.160609 0.594761 -0.837729 0.555486 0.085611 0.305379 0.237311 -0.041012 0.124807 0.280378 -0.206517 0.241384 -0.203114 0.195110 0.554546 0.493871 0.314666 -0.002601 0.134931 0.400545 0.421818 -0.110545 -0.245647 -0.060894 -0.009783 0.265274 0.381845 
1291 0.166662 0.153422 0.219683 -0.095317 0.466071 -0.172988 -0.256925 -1.029566 0.046206 0.364487 -0.356859 -0.445575 -0.558240 0.019105 0.003469 -0.052319 -0.262351 -0.411260 0.882783 -0.138683 0.061274 0.660377 -0.273662 0.172922 0.194100 -0.647566 -0.252985 0.512249 0.776593 0.451160 -0.414014 0.305389 -0.389918 0.042801 -0.596141 -0.316113 0.112851 0.114392 0.214799 0.686699 0.725221 0.376398 0.260417 0.191862 0.106637 0.058462 0.384604 -0.301601 -0.134227 0.343236 0.596663 0.414524 -0.200338 0.425918 -0.437929 -0.179876 0.100860 -0.035433 0.322639 0.544436 0.110494 -0.798374 0.410535 -0.300075 0.261668 0.120562 0.228368 -0.029864 0.438347 -0.264324 -0.062244 -0.092509 -0.141466 -0.416621 -0.212663 -0.401654 -0.726780 -0.471221 -0.165830 -0.518000 -0.528715 -0.369033 -0.864216 -0.048328 -0.016736 0.062593 0.189904 0.416459 0.112293 0.548200 -0.487365 -0.351464 0.266809 0.035188 -0.070111 0.334393 -0.102646 -0.026555 0.237661 0.051491 -0.037857 0.228005 -0.161503 0.009939 0.246514 -0.265710 0.637010 0.140050 0.355910 -0.185168 -0.251346 0.137918 0.564961 -0.024520 0.352749 -0.326065 -0.401726 0.068443 -0.008517 0.087955 -0.038077 0.393236 0.710373 -0.156083 0.132095 -0.545330 -0.360701 0.249924 
7361 0.130250 0.436405 -0.137880 0.573978 -0.160989 0.276352 -0.085519 -0.945292 0.286186 -0.119475 -0.546640 0.203123 -0.233358 0.495607 0.532400 0.600709 -0.126420 -0.219657 0.221249 -0.585787 0.523754 -0.153678 -0.389441 -0.335331 -0.289597 -0.302480 -0.193059 -0.196953 0.105965 -0.184504 -0.212691 -0.032281 -0.373827 -0.307803 -0.023234 -0.761333 0.716080 0.091747 0.418216 -0.628724 0.139448 -0.360374 -0.338386 -0.434811 0.223301 -0.132341 -0.282940 -0.335777 0.196325 -0.192261 -0.081926 -0.105727 -0.363967 -0.446245 0.584252 0.124951 -0.138436 -0.292980 -0.118200 -0.238137 -0.107328 -0.102352 0.040829 -0.136101 0.786449 1.116825 -0.232321 0.314970 0.552508 -0.472099 0.055272 -0.428377 -0.065679 0.263431 -0.192261 -0.017847 0.352935 -0.548936 -0.055224 -0.651976 0.553186 0.013526 -1.285307 -0.048600 -0.396673 -0.310618 0.233022 0.139742 -0.129833 0.049160 -0.668851 -0.103721 1.028612 0.261607 0.301213 -0.590273 -0.507222 -0.291396 -0.545005 -0.409584 -0.105599 -0.111052 0.045036 -0.293048 -0.159057 -0.631289 -0.414651 0.147386 -0.071056 0.321450 -0.108813 0.467771 0.542844 0.156080 -0.258654 0.359004 0.312987 0.092785 0.117734 0.033905 -0.365862 -0.661686 0.313741 0.381136 -0.084842 -0.202394 -0.371668 0.164211 
2329 -0.108806 -0.592355 -0.167399 -0.826878 -0.175714 -0.100056 -0.113748 -0.466411 -0.288337 0.174201 -0.718701 -0.568115 0.032177 -0.124640 0.009099 0.541340 0.059221 0.354836 0.791736 -0.335839 0.142314 -0.166188 0.163733 -0.870257 0.008923 -0.679256 0.136961 0.188775 0.012452 0.356604 0.178888 0.443369 0.817563 -0.180594 0.102639 0.202892 0.439858 0.435306 0.679184 -0.194588 -0.406260 -0.249015 0.129448 -0.115122 0.278824 -0.765948 0.404739 -0.273825 -0.045956 -0.450223 -0.359647 0.458108 -0.306655 0.222123 -0.559176 -0.009482 -0.247698 0.252592 -0.224474 0.596698 0.693714 -0.349751 -0.281167 0.280057 -0.210117 0.476789 -0.821446 -0.064740 0.408916 -0.270980 -0.198294 -0.109013 -0.028036 0.374267 -0.078474 -0.363691 -0.121018 -0.110866 0.174834 -0.046731 0.169779 -0.478074 -0.879313 -0.320913 0.292859 -0.294080 -0.407463 0.370883 0.185536 0.384978 0.017320 -0.261329 0.142612 -0.560291 0.142990 0.248526 -0.336427 0.206643 -0.180042 -0.660924 -0.070826 -0.122635 0.170906 -0.416267 -0.145155 0.083897 0.638210 0.569967 -0.105441 -0.169475 0.417939 -0.147544 0.375632 -0.040277 0.274832 -0.699021 -0.352786 -0.057959 -0.561450 0.469364 0.005019 0.151619 -0.029422 0.242653 0.127291 -0.367464 0.166512 0.187503 
590 -0.773832 -0.065648 -0.353598 -0.367914 0.433834 -0.633556 -0.137130 -1.024427 -0.227991 -0.500303 -0.191750 -0.342401 0.275262 0.159487 -0.494895 -0.019211 -0.300963 0.563464 1.009475 0.317745 -0.129111 0.374595 -0.253516 0.229429 0.500599 -0.559869 0.741963 0.358178 -0.478242 0.197724 -0.054039 -0.563040 -0.462055 0.898229 0.140318 -0.189493 -0.494968 0.098189 0.238478 -0.054307 0.510596 -0.271138 0.004787 0.477068 0.154827 0.146878 0.139580 -0.201389 0.218100 -0.058890 -0.076449 0.213382 -0.235832 -0.175465 -0.474373 0.000563 -0.494126 -0.119972 0.404689 0.242969 -0.128137 -0.357862 -0.327859 0.263976 -0.087544 0.184515 -0.531389 -0.085087 0.503296 -0.262090 -0.315685 0.343839 0.151786 -0.679588 0.468628 -0.365525 -0.024642 -0.665544 -0.007499 0.386160 0.358631 -0.167116 -0.608407 -0.395593 0.168019 0.560071 -0.247267 -0.162450 0.662740 0.165203 -0.263564 -0.092517 -0.073234 -0.475066 0.482073 0.210025 0.223957 -0.621805 0.187310 -0.131566 0.464694 0.196448 0.056831 -0.573648 -0.261107 -0.180166 -0.376956 0.205944 -0.576876 0.278643 0.234080 -0.283909 -0.404663 0.063568 0.066161 0.843834 0.373983 -0.278599 -0.149285 -0.779521 0.016526 0.061700 -0.490812 -0.274712 0.178654 -0.158932 -0.293608 0.035525 
1704 0.260367 -0.454819 0.485050 -0.099262 0.175089 0.127573 -0.332389 -1.056645 0.171541 -0.175835 -0.609809 -0.739599 0.394208 0.062105 -0.284359 -0.079052 -0.089487 0.046761 0.929398 -0.358769 -0.179820 0.216672 -0.784107 -0.075444 -0.100263 -0.592474 -0.454244 0.255561 0.139105 0.174801 0.036044 -0.387214 0.527814 -0.130127 0.533917 -0.139311 -0.068333 0.222932 0.628409 0.100994 -0.238432 -0.352286 0.556220 0.423999 0.004327 0.012298 0.123903 -0.165525 -0.059963 -0.098791 -0.027345 0.137408 -0.156104 -0.096603 -0.534188 -0.186650 0.261056 0.477081 -0.183104 -0.229338 -0.289006 -0.435437 0.130966 0.006466 -0.322860 -0.136042 -0.330768 -0.410416 0.679639 0.389058 0.347848 0.358364 0.080728 -0.125076 -0.388293 0.027853 0.020183 0.137150 0.534726 0.127911 0.159432 -0.028425 -1.401265 0.184644 -0.002195 -0.566728 -0.428195 -0.100960 0.022244 -0.264812 0.056942 -0.163423 0.313696 -0.240096 -0.800655 0.566374 -0.095388 -0.258833 0.230846 -0.811136 0.597101 0.162272 0.051310 0.261456 -0.312309 -0.953909 0.627369 -0.397728 0.081959 0.296878 -0.484911 0.220704 -0.570759 -0.415110 0.320621 0.043443 -0.379133 0.188433 0.302481 -0.043194 -0.260336 0.363503 0.126311 -0.315348 -0.079241 -0.367213 0.070481 -0.036563 
1213 -0.342849 0.200725 0.256773 -0.024859 0.132019 -0.516597 -0.565809 -0.821954 -0.251578 -0.036772 -0.951368 -0.481108 0.436872 0.428224 -0.295110 0.214150 0.182786 -0.240121 0.663721 -0.008293 0.243069 0.006312 -0.290523 -0.299021 0.015147 0.048888 -0.103882 -0.256921 0.121311 -0.004614 -0.254665 0.136846 -0.338669 -0.044544 0.109589 0.386379 0.122802 0.279610 0.352730 -0.075749 0.095913 0.443398 0.540132 -0.190077 -0.354721 -0.055736 0.140699 -0.001081 -0.297073 -0.243941 0.386085 -0.102092 0.171528 0.018842 -0.838469 -0.165726 0.063961 -0.007467 -0.195094 0.399761 0.111542 -0.692134 -0.074522 0.050086 0.716783 -0.124268 0.225094 0.469139 -0.081080 -0.195402 -0.085260 -0.016642 0.297101 -0.083543 -0.354309 -0.144736 0.636206 -0.237505 0.296382 -0.694806 -0.352990 -0.277212 -1.081879 -0.282388 -0.088700 0.072180 -0.844450 0.291186 0.066381 0.260484 0.241918 -0.270408 -0.497718 -0.526455 -0.066362 0.240289 -0.205848 -0.269955 0.599867 -0.605791 -0.319669 0.731566 0.539773 -0.201338 0.013793 0.245880 0.613470 -0.160649 0.344620 -0.433389 -0.197280 0.654161 -0.162292 -0.061904 -0.355447 0.488013 0.146780 -0.662266 -0.224313 -0.275789 0.128748 0.108358 0.099334 -0.066663 -0.764441 0.245525 0.111873 0.091268 
1136 -0.403613 -0.295211 -0.565311 0.159776 -0.018022 -0.317142 -0.763238 -0.597391 0.491339 0.169216 -0.842764 0.217485 0.201294 0.278370 -0.117208 -0.112144 -0.722470 0.237650 0.337015 0.022389 -0.149335 0.084563 -0.086512 0.361822 -0.042000 0.373155 0.143780 0.351312 0.382543 -0.479161 0.004793 0.029365 0.003517 0.289804 0.258855 -0.328327 0.446395 -0.118949 0.175356 -0.045656 -0.255598 -0.444377 0.055706 0.005799 0.009235 -0.495223 0.647737 -0.321254 0.122636 -0.334610 0.004649 0.121095 -0.266519 0.043685 -0.435477 0.860458 -0.068862 -0.698463 0.183805 1.095637 -0.020284 -0.588773 0.445639 -0.205658 0.278944 -0.197759 0.155359 -0.351620 -0.067094 0.748828 0.313336 -0.187988 0.073091 0.340940 -0.108401 0.268452 0.726669 -0.227442 0.626430 0.231990 0.282729 0.493901 -1.329759 -0.244826 0.266850 0.566608 0.418256 -0.312220 0.526919 0.802365 0.430188 -0.678213 -0.753097 -0.285743 0.435650 0.493666 0.188456 0.085841 0.152073 -0.203023 0.073390 0.542855 0.438481 -0.462113 -0.377024 0.093427 0.348537 0.182958 -0.065694 -0.152438 -0.004646 -0.421362 -0.167823 -0.200910 -0.224300 0.641737 -0.164402 0.461704 0.364004 -0.388860 0.086862 0.086205 0.109290 -0.500098 -0.177959 -0.519108 -0.003076 0.072315 
1036 -0.850808 0.120837 -0.308898 -0.403760 -0.222607 0.350182 -0.371517 -0.792421 -0.114934 -0.016215 -0.671911 -1.120505 0.436526 0.274852 -0.307111 0.494998 -0.314122 -0.158792 0.781248 0.303674 0.253909 0.589031 -0.164638 0.117753 0.153392 -0.486208 0.344022 -0.114538 -0.724293 -0.223994 1.076514 0.101473 -0.233821 0.063733 -0.022655 -0.404297 -0.216863 -0.235606 0.023171 -0.305604 -0.196650 -0.381187 -0.172328 -0.378714 0.451565 0.221805 0.172755 -0.501176 -0.453672 0.240270 0.059816 -0.172823 -0.234465 -0.171913 -0.302370 -0.035653 0.130814 -0.302143 -0.003845 0.848641 -0.024432 -1.104496 0.181804 -0.132107 0.219367 -0.158891 -0.121756 0.360926 -0.232790 0.058455 0.115599 -0.318353 -0.248199 -0.407280 -0.351838 -0.122743 -0.181662 0.160797 0.336240 0.353865 -0.623763 -0.482253 -0.842389 -0.282634 -0.340071 -0.537740 0.133554 0.298815 0.875368 -0.245294 -0.416106 -0.657416 -0.424854 0.059103 0.425433 0.232763 0.006507 -0.280904 -0.101972 -0.031533 0.059693 0.266857 -0.113444 -0.122431 0.435840 0.332385 0.421787 0.455656 0.066807 0.385397 0.274390 -0.338270 0.238001 0.124477 0.046730 0.466986 0.142865 -0.432791 -0.166691 -0.211938 0.280300 0.231142 0.252472 0.008001 -0.238031 0.381119 0.144993 0.191354 
1265 -0.206634 0.348217 0.153740 0.019510 0.290319 -0.167435 -0.578351 -0.880535 -0.413654 0.537629 -0.622504 -0.409248 -0.254290 0.034412 -0.768458 0.592714 0.591566 0.513906 0.851281 -0.481639 0.168938 0.182008 -0.264358 0.827428 -0.235319 -0.079262 0.184439 -0.096674 0.380142 0.445100 -0.238461 0.194431 -0.338795 -0.037159 -0.146019 0.326007 -0.123859 0.309968 0.340999 0.331382 0.522888 0.504540 0.337963 -0.563106 0.114868 0.729434 -0.408382 -0.277376 -0.690808 0.138250 -0.373567 0.697146 -0.008937 -0.043020 -0.387411 -0.083825 0.182555 0.510364 -0.263554 0.446771 0.360172 -0.531528 0.049355 0.217730 -0.090836 -0.281300 -0.665338 -0.629608 0.396080 -0.350175 -0.217415 0.020839 -0.116997 -0.511720 0.004830 0.192710 0.091560 -0.356104 0.266576 0.184317 -0.047509 -0.030523 -1.265051 0.069394 -0.000583 -0.229409 -0.482031 0.396584 0.154326 0.175588 0.019899 -0.372603 -0.236760 -0.779523 -0.246153 0.254861 0.367811 0.103986 -0.226739 -0.221725 0.077137 0.302797 0.632225 -0.139742 -0.096905 -0.540236 -0.088802 0.209433 0.228354 0.002063 0.125354 -0.365421 0.048682 0.331932 0.403141 0.529403 -0.754700 -0.243626 0.319873 0.417609 0.166241 0.232019 0.306272 0.014357 0.115886 0.181418 0.570423 0.485143 
4973 0.174487 -0.088309 -0.186686 -0.477800 -0.316500 -0.054885 0.523293 -1.017580 0.099001 -0.429133 -0.100491 -0.454345 -0.030272 0.326600 0.149348 1.042081 -0.140989 0.564156 0.723148 -0.651900 -0.022305 -0.218785 0.177914 0.089936 0.290018 -0.029567 0.344172 -0.718248 -0.054250 -0.416305 -0.182527 0.146546 -0.010791 -0.119435 -0.129633 -0.805744 0.040977 0.583083 0.442611 -0.181682 -0.308349 0.360776 -0.012598 0.009317 -0.114627 -0.317646 0.784520 0.100332 0.348456 -0.197951 0.493268 -0.206697 -0.702209 -0.226783 -0.362461 0.086895 -0.304887 0.147521 0.294963 -0.021177 0.189365 -0.102529 0.215033 0.855886 0.167929 0.006069 -0.080831 -0.676539 -0.104177 0.193439 0.165140 -0.984283 -0.368095 0.325700 0.072586 -0.261211 0.157462 -0.196327 -0.035071 0.374591 0.109938 0.437899 -1.372290 -0.088491 0.295618 0.538596 0.247653 0.584141 -0.311471 0.188893 0.022989 -0.366690 0.743273 -0.309499 -0.445193 0.535703 -0.248123 -0.768127 -0.132227 0.002768 -0.038594 0.529670 0.178150 0.255332 0.332944 -0.241567 -0.093943 0.156027 -0.701310 -0.093957 -0.849610 0.260003 0.348805 -0.699914 -0.064752 0.198252 -0.069731 -0.023546 0.226229 -0.232894 0.598815 -0.396866 -0.141495 0.112770 -0.241475 -0.064620 -0.102390 0.262843 
6377 -0.171150 0.185303 0.188269 0.081704 -0.024175 0.517641 0.341538 -0.808810 0.427202 -0.685346 -0.184458 0.123179 0.154745 0.177233 0.749141 -0.117933 0.068537 -0.169988 0.716502 0.342147 -0.191682 0.235307 -0.251161 -0.236307 -0.358849 -0.586358 0.833004 -0.501949 0.435185 -0.305703 -0.385951 -0.299612 -0.309751 -0.426442 0.197200 0.578416 -0.466969 -0.365880 0.719407 0.324801 0.040350 -0.057871 -0.105780 -0.673248 0.147382 -0.228064 -0.049428 -0.081441 -0.170014 0.097800 0.154572 -0.825090 -0.113262 0.568084 -0.029885 -0.038604 -0.014399 -0.499957 -0.071055 0.033323 1.002630 0.199160 -0.409333 -0.115047 0.392410 0.283087 -0.566203 -0.033632 0.519457 0.498312 -0.473928 -0.321919 0.458811 -0.031619 0.189452 0.248129 0.201501 0.261985 -0.200928 0.121517 0.273427 0.676557 -1.635202 0.675398 -0.193638 0.154834 0.016617 0.579998 0.132796 0.259524 -0.152079 -0.706686 0.166433 0.349663 -0.133341 0.118793 0.522721 -0.222736 -0.236533 -0.329900 0.681138 0.660792 -0.431809 -0.551097 -0.424286 0.303892 0.351772 -0.071886 0.234480 0.243001 -0.194875 -0.029786 -0.194731 0.302159 -0.151466 0.041798 -0.794156 0.193417 0.284753 0.361634 -0.543378 -0.393899 0.161742 -0.262973 0.069657 -0.329770 0.043625 -0.152754 
1240 -0.214671 -0.148040 -0.191311 -0.128466 0.251296 -0.139987 -0.642950 -0.903126 -0.018789 0.631708 0.229111 -0.065537 -0.076678 -0.027471 -0.520540 0.221684 -0.561676 -0.125557 0.820623 -0.437316 -0.232187 0.216466 -0.188338 0.221784 0.485062 -0.436227 -0.070932 -0.136989 0.110882 0.037616 -0.414710 0.304550 0.247599 0.159841 -0.325558 -0.197376 0.387097 0.351968 0.648040 -0.287368 -0.081621 0.444406 0.616799 -0.000942 0.067509 0.785414 -0.129544 0.021480 -0.650120 -0.183259 -0.335646 0.496582 0.110262 -0.164645 -0.275652 -0.142941 0.365780 0.471997 0.097265 0.192026 0.400237 -0.210984 0.081106 -0.593139 0.017837 -0.293348 -0.630859 -0.217417 0.252006 -0.117178 0.338109 -0.396232 0.483533 -0.404028 -0.421624 -0.330488 0.038358 -0.087757 0.468306 -0.429549 -0.478116 -0.332473 -1.182423 -0.114147 -0.748108 -0.200550 -0.101255 0.223621 0.618919 0.463347 -0.269144 -0.164720 -0.384567 -0.435097 0.400726 0.001120 -0.245409 -0.280331 0.747132 0.016092 0.090098 0.455456 0.210275 -0.087645 0.064420 -0.341747 0.076573 0.013055 0.721312 -0.013840 0.157896 -0.317437 0.290803 0.285576 -0.311524 0.568603 -0.096765 -0.024738 -0.105620 -0.792045 -0.236851 1.004181 0.534005 -0.045356 -0.200824 -0.122900 0.049833 0.119677 
293 -0.214687 0.157089 -0.264677 -0.359989 0.020317 -0.498977 -0.170084 -0.625885 0.011998 -0.483707 -0.492566 -0.870923 -0.044878 0.573454 0.008460 0.087066 0.209710 0.320527 1.229099 0.021355 0.396866 0.219356 -0.216575 -0.044185 -0.147880 -0.536610 0.020737 0.005131 0.063737 0.746096 -0.249837 -0.347003 -0.404301 0.253207 0.127115 -0.465417 0.646970 -0.371502 -0.111253 -0.241678 0.094551 0.063885 -0.348939 -0.201615 0.004446 0.084918 -0.354566 -0.280805 0.358951 -0.005122 0.377347 -0.353173 -0.253119 -0.287681 -0.415782 0.021512 -0.438320 -0.474974 0.179653 0.222940 0.864768 0.164582 0.202944 0.025009 0.152325 0.325009 -0.140899 0.305437 0.412848 0.009110 0.155993 0.593654 0.265507 -0.695461 -0.340549 0.150150 0.788132 -0.605018 0.012043 0.236150 -0.215030 -0.079075 -0.583314 -0.361431 0.654151 -0.475499 0.115381 -0.105174 0.579216 0.287086 0.220757 0.262465 -0.308937 -0.128339 0.287244 0.342846 0.367837 -0.155864 0.436532 0.036813 -0.345904 0.742859 0.471338 0.081231 -0.012275 -0.455837 -0.079378 -0.210513 0.178561 0.385547 0.399550 -0.219027 0.331600 -0.048544 0.459461 -0.190481 0.458995 0.252511 0.085272 -0.124400 -0.034136 0.131143 0.406174 -0.051267 -0.461732 -0.446006 -0.093612 0.388417 
4995 -0.389633 0.112401 -0.003744 -0.219455 0.295745 0.051286 0.344303 -1.174442 -0.112969 -0.043905 0.054238 -0.179638 0.478576 0.416297 0.043733 0.194560 -0.078777 0.278525 0.308505 -0.022932 0.128484 -0.233093 -0.121341 -0.247182 0.447423 0.381609 0.494160 -0.219463 0.396613 -0.259549 -0.487476 0.514091 0.312716 -0.431589 0.359610 -0.074652 -0.062252 -0.109882 0.522399 0.353202 -0.245442 -0.282683 0.553706 -0.173119 0.058197 -0.378936 0.101603 -0.433455 0.254418 -0.178792 0.534571 0.205461 -0.225381 -0.109149 -0.546042 0.383569 0.224783 -0.019715 0.825692 -0.516442 0.189028 0.251167 -0.111793 0.102446 -0.312364 0.462183 0.203415 0.044769 0.631432 0.687431 -0.099170 -0.305333 -0.608390 0.048835 -0.172730 -0.329535 0.233173 -0.025205 -0.172959 0.603735 -0.034187 0.420917 -1.702137 0.305256 -0.534274 0.186019 -0.195520 -0.268839 -0.222990 -0.123051 -0.368042 -0.948721 0.561908 0.540419 0.218338 -0.038956 0.029872 -0.130323 0.056614 -0.171439 0.128133 0.469169 -0.287738 0.072236 -0.047942 0.226894 0.256415 0.275074 -0.780435 -0.209306 -0.468016 0.032144 0.661012 -0.031388 -0.000396 0.300268 0.017774 0.277826 0.552190 0.258048 -0.325725 -0.340855 -0.240720 -0.391098 -0.439200 0.612499 0.230683 -0.463456 
48516 0.079928 0.149544 -0.618680 -0.510414 0.088283 0.028959 -0.112863 -0.754218 0.302333 -0.140122 0.155055 -0.387560 0.078928 0.383830 0.472988 0.503326 0.761991 0.664848 0.597654 0.064697 -0.201917 -0.074892 0.091473 0.165371 0.199743 -0.149281 -0.542798 -0.440617 0.183436 0.250872 0.225847 0.292113 -0.054425 0.011156 0.026595 0.387856 -0.296530 -0.824602 -0.073552 -0.450423 0.329781 0.622935 0.342469 -0.419455 0.524098 -0.346009 0.725351 -0.130510 0.439347 -0.171118 -0.240672 -0.561861 0.010648 0.078577 -0.066755 1.028757 -0.652927 -0.125948 -0.413914 0.093439 0.575106 0.132055 -0.323904 -0.359712 -0.122039 0.126794 0.024876 -0.226619 0.564229 -0.244544 0.094033 -0.106232 0.189248 0.269027 0.022400 -0.359065 -0.741804 -0.128510 -0.665119 -0.559139 -0.512020 0.087540 -1.394878 0.038585 -0.007477 -0.446929 0.882921 -0.035380 0.099760 0.194106 0.053263 0.084545 -0.022671 0.067415 -0.354793 -0.377437 -0.674331 0.325572 0.540579 0.014235 -0.292557 0.257688 0.006711 -0.321688 0.130074 0.101706 -0.663391 -0.033226 -0.647439 0.164158 -0.239579 0.295066 1.097115 0.865865 -0.098787 0.801987 0.211206 1.000298 0.450290 -0.189595 -0.102034 -0.357755 0.067881 0.059017 0.148947 -0.122243 0.549151 0.650029 
6539 0.158226 -0.106975 0.579039 -0.263549 -0.086325 0.479095 0.166818 -0.802191 0.392269 -0.324239 0.087196 0.511217 -0.259408 -0.132743 0.465336 0.414029 -0.659025 0.217404 0.706542 -0.464674 0.545733 -0.059117 0.149796 0.050988 -0.550221 -1.074271 -0.002403 -0.736966 0.031376 0.317936 -0.524427 -0.278355 -0.048842 0.281634 0.531701 -0.060132 -0.273673 0.219802 0.336549 -0.037852 0.184552 -0.239795 0.419477 -0.694578 -0.168469 -0.216466 0.149843 -0.043873 -0.191357 0.103143 0.615916 -0.716332 0.227136 -0.126633 -0.110968 0.474204 -0.226346 -0.320751 -0.102934 -0.013996 0.617469 -0.263611 -0.459913 -0.205208 0.509798 0.713801 0.112216 0.175801 0.473072 -0.397624 -0.471487 -0.012267 0.457876 0.203434 -0.432602 -0.339761 0.272574 0.031100 -0.210381 0.378793 -0.191153 0.712287 -1.326730 -0.272869 -0.917165 0.090982 0.051391 0.124925 0.204343 0.028116 -0.254382 -0.282239 0.062414 0.088657 -0.434174 -0.317892 -0.318856 -0.762541 -0.212472 0.121434 0.561340 0.526024 -0.097461 -0.385421 0.242043 0.864172 0.280421 0.391995 -0.090771 -0.182912 -0.484040 0.095521 -0.060438 0.584859 -0.110312 -0.208101 -0.281164 0.067747 0.407748 -0.018716 -0.039165 0.041331 -0.411278 -0.187226 0.188204 0.488703 0.017645 -0.261943 
3147 0.096383 0.098111 0.206294 -0.026791 -0.107473 -0.717276 -0.785880 -0.551571 0.061232 -0.680875 -0.489583 0.055149 0.151242 -0.044318 0.190494 0.176352 -0.133467 -0.400469 0.897398 -0.104614 -0.188502 -0.142947 -0.755925 0.202769 -0.355323 -0.328974 0.004766 0.113321 0.476113 -0.466915 0.184698 0.236877 -0.059469 0.009753 0.025845 -0.355828 -0.058669 -0.356327 0.189446 -0.178040 -0.391893 0.233740 0.235613 -0.443266 -0.090115 -0.680381 0.255715 0.535888 0.122218 0.000294 0.160534 0.518745 -0.065535 -0.613790 -0.241571 -0.625502 -0.114292 -0.085736 0.080278 -0.062482 0.525212 0.218091 -0.249933 0.102712 0.278376 0.408361 -0.167360 -0.592694 0.898368 -0.616540 0.524787 0.023344 -0.570384 0.253139 0.520280 -0.359443 -0.406213 0.471214 -0.074578 0.364100 0.142876 0.073607 -1.122353 -0.242769 -0.457791 0.727255 0.531072 -0.417794 0.555304 0.609117 -0.444694 -0.023670 0.126779 -0.126344 -0.335029 0.220181 -0.193806 -0.336562 -0.128740 -1.187668 0.000453 0.183542 -0.656506 0.461904 0.060767 -0.152090 0.104102 0.369703 -0.205355 -0.228576 -0.080161 -0.013830 0.097021 0.398276 0.212236 0.152858 0.124826 -0.591835 -0.156150 0.332426 0.838191 -0.356923 0.320499 0.450091 0.021279 -0.511214 0.404005 -0.623069 
541 -0.173861 -0.225523 -0.467497 -0.125977 0.203843 -0.497663 -0.230359 -0.877220 0.311700 0.023565 -0.328563 -0.522432 0.132162 0.339512 -0.624793 -0.160867 0.063082 -0.012325 0.614409 0.504166 -0.091135 0.536959 -0.883330 0.159892 0.299945 -0.339665 0.566114 -0.138804 -0.206118 0.509151 0.173371 -0.004848 -0.507401 0.603986 -0.500381 0.543188 0.610051 -0.080547 0.194529 0.556862 -0.107427 0.093737 -0.240756 -0.027160 0.307987 0.192746 0.147946 -0.297950 -0.061456 -0.566695 -0.080258 0.384207 -0.189409 -0.032152 -0.723807 0.452389 0.339729 0.286367 -0.081271 0.459485 0.203104 -0.072994 -0.388293 -0.028569 0.057550 0.228051 -0.300555 0.276677 0.347403 0.191200 0.418737 0.324056 -0.086587 -0.246849 -0.320610 -0.223823 0.448487 -0.958529 -0.538996 0.478472 0.350536 -0.019183 -0.608996 -0.495393 0.128292 -0.154054 -0.197204 -0.204493 0.720798 0.384553 -0.257854 -0.540518 0.053230 0.219325 0.673927 -0.415147 -0.109844 0.049309 0.369681 -0.019844 -0.058875 0.537807 0.618942 0.187165 0.162121 -0.157102 -1.062091 -0.440986 -0.680802 0.361414 0.061223 -0.585926 0.047461 -0.047131 -0.234876 0.586181 0.348241 0.069748 -0.329234 -0.458190 0.392338 0.089073 -0.015551 -0.033458 -0.004708 -0.212248 -0.107659 0.242753 
6874 0.319785 0.600598 0.488121 -0.337622 -0.174263 -0.086176 -0.399409 -0.856445 0.348137 0.300283 0.141272 -0.002339 0.808444 0.124711 -0.022741 0.257526 -0.803193 -0.043418 0.976098 -0.006281 0.920554 0.227659 -0.306718 -0.782584 -0.922249 -0.663613 -0.090802 -0.655784 0.362643 -0.270223 -0.343946 0.127960 0.061450 -0.179877 0.720272 -0.229072 0.591974 -0.203007 0.569810 -0.742738 0.289955 -0.335602 -0.169951 -0.572654 0.118277 -0.045607 -0.224012 -0.688167 0.716247 -0.096400 0.112314 -0.155465 -0.182821 0.251105 0.207475 0.024221 -0.665485 -0.573526 0.332284 0.011890 0.641994 -0.529844 -0.722830 0.445112 0.774144 0.378675 -0.177048 -0.258725 0.399669 0.194971 -0.406161 -0.159176 0.543128 0.076186 -0.017147 -0.425964 -0.342370 -0.236539 -0.341033 0.422580 0.162601 0.171447 -1.147227 0.181994 0.173186 -0.214033 0.067720 0.259724 -0.373985 0.274362 -0.079578 0.241730 0.243633 0.075970 0.175091 -0.268427 -0.444168 -0.162450 -0.033012 -0.169459 -0.266746 0.883128 0.175087 -0.178954 0.147706 0.452030 0.563055 -0.069329 0.123730 -0.308233 -0.319824 0.455555 0.262646 0.329424 -0.293966 0.718997 -0.102459 0.269153 0.176919 0.189842 -0.001059 -0.457344 -0.470254 0.227428 -0.011531 -0.046358 0.203164 -0.028718 
4886 -0.131967 0.181457 -0.135404 -0.625203 0.033557 0.337573 0.121079 -1.478230 -0.150422 -0.324232 -0.676495 -0.178390 0.146761 0.497636 0.515869 0.205878 -0.440392 0.571497 0.036926 -0.490012 0.254651 -0.743910 -0.502340 -0.089838 0.023677 -0.169741 -0.188432 0.201189 0.685668 0.066244 -0.242516 -0.174970 0.502940 0.347888 0.077197 -0.256722 0.774751 0.101194 -0.079699 0.075757 0.280976 0.163663 -0.214178 -0.049102 0.424252 -0.232530 0.208846 -0.024702 0.582990 0.002658 0.613005 0.029207 0.238319 -0.402224 -0.733414 -0.494280 0.286988 0.006193 0.040906 0.219815 0.359058 -0.047456 0.624215 0.722421 -0.054101 0.126042 -0.881639 0.143188 0.235659 0.330860 0.195290 -0.452483 -0.271958 -0.031771 0.363880 0.019900 -0.124009 -0.247922 0.188326 0.073054 0.291145 0.369380 -1.448563 0.361264 0.267274 -0.145879 0.429973 0.169360 0.280818 -0.185368 0.465301 -0.387779 0.259844 0.667799 0.233884 0.430402 -0.415208 -0.194699 -0.014417 -0.484916 0.811780 0.370138 0.021717 0.027489 -0.110630 0.489510 0.364202 0.060421 -0.714851 -0.367425 -0.365932 0.070784 0.525286 0.603977 0.216708 0.068272 -0.177564 0.255839 0.379383 -0.178753 0.106808 0.214118 -0.644857 0.366193 0.107131 -0.041338 0.642471 -0.553632 
1206 -0.353452 -0.171282 -0.354624 -0.211948 -0.162218 -0.204084 0.060771 -0.962066 0.397049 0.275821 0.049525 -0.704773 0.030449 0.789214 -0.428621 -0.048357 -0.608078 -0.122618 1.137052 0.026554 -0.159394 0.184188 -0.633652 -0.112728 0.234848 -0.427973 0.430183 -0.219684 -0.575249 0.075467 0.264476 0.033212 -0.039154 0.008955 -0.111951 -0.084008 -0.060617 0.192188 0.032683 -0.018827 0.146990 -0.462528 0.160012 -0.180038 0.381286 -0.447378 0.439209 -0.374697 -0.570656 -0.189672 -0.508133 0.361084 -0.257153 -0.608397 -0.688079 -0.454520 -0.266767 0.033604 -0.062181 0.465906 0.836191 -0.823638 0.232177 0.136056 0.653449 0.170200 0.245976 -0.518228 0.235837 0.232134 -0.031787 -0.090305 0.186279 -0.493110 -0.347615 0.160319 0.715159 -0.357961 0.434629 -0.371677 0.248101 0.009139 -0.520761 0.259861 -0.159784 0.734705 -0.702638 0.362746 0.383560 0.194983 0.015550 0.059627 -0.220416 -0.428082 0.047056 0.623230 -0.319983 0.309566 0.564744 -0.640486 -0.548833 0.522420 0.935766 -0.205942 -0.507676 -0.042136 -0.158358 -0.499068 0.297478 -0.133796 -0.426359 0.297212 -0.259251 -0.312433 0.589509 0.086943 0.090263 0.172942 -0.215336 -0.396392 0.016230 -0.143988 0.124898 -0.242575 0.246178 0.049494 -0.512372 0.433624 
1200 -0.287279 0.770449 0.323994 -0.116655 0.234613 -0.026850 0.019348 -1.317129 0.305769 0.153305 -0.254811 -0.373603 0.262286 0.422687 0.087490 0.334806 -0.252579 0.023186 0.902828 -0.126424 0.010392 0.422521 -0.082735 0.028482 -0.000204 -0.328637 -0.159071 -0.039517 -0.053550 -0.283897 -0.220950 0.087528 -0.765475 0.498228 -0.243528 -0.282384 0.017671 -0.468455 0.041548 0.104666 0.081938 -0.498553 0.096353 -0.453932 0.176728 0.587702 0.544555 -0.331232 -0.123430 -0.026034 -0.679858 0.252889 0.310421 -0.223199 -0.032355 -0.110514 0.201377 0.179487 -0.243276 0.560749 0.398079 -0.526959 0.187922 -0.151364 0.000939 -0.103225 0.082185 0.056130 0.114393 0.335597 0.626550 -0.061839 0.136409 -0.272049 -0.592861 0.064717 0.473322 0.045038 0.823586 0.297438 0.287113 -0.289346 -1.189924 -0.169622 -0.213011 -0.619613 -0.370625 -0.322129 0.862258 0.272863 0.168765 -0.442787 -0.467730 -0.252992 0.459089 0.063556 -0.685557 0.381402 1.188051 -0.249349 0.504018 0.653604 0.499838 -0.224010 -0.024369 0.256465 0.071822 -0.217117 0.393389 0.235310 -0.171673 0.426346 0.237047 -0.518047 -0.288616 0.333463 -0.081791 -0.220865 -0.539563 0.678814 -0.207880 0.167660 0.424239 -0.496022 -0.079999 0.172166 -0.176328 0.467474 
780 -0.647501 0.455516 -0.340368 0.265653 0.557774 -0.035023 -0.068221 -0.857201 0.014986 0.255850 -0.889569 -0.899138 0.405487 0.163323 -0.453271 0.187979 -0.091404 -0.055206 1.086535 -0.188565 0.393334 0.509349 -0.841969 0.152969 0.133515 -0.349404 0.031625 0.288181 0.246292 -0.069571 -0.050868 -0.480224 0.102581 0.258642 -0.668864 -0.477298 -0.408326 -0.067681 0.177155 -0.165501 0.336420 0.245450 0.128526 -0.383534 -0.075646 0.304564 -0.041880 -0.663023 -0.177336 0.040217 -0.417616 0.392268 -0.113889 0.358142 -0.012108 0.013197 0.413008 0.018815 0.441496 0.124290 0.211946 -0.498715 -0.394609 0.140254 -0.344746 0.110224 0.099083 0.179876 0.202285 -0.104540 -0.847175 0.349196 -0.119354 -0.053084 0.026283 -0.142654 0.081595 0.132708 0.322123 0.406142 0.306713 -0.281337 -0.516180 -0.139931 0.115386 -0.582555 -0.494027 -0.276920 0.669552 0.407808 -0.246972 0.184136 -0.539804 -0.200807 1.233197 0.217261 0.196544 -0.540866 0.521533 -0.226952 -0.182122 0.244746 0.410828 -0.468371 0.285993 -0.335343 0.017024 0.471807 -0.205381 0.520219 -0.678542 0.059134 -0.229019 0.033274 -0.179094 0.491795 0.016528 0.617667 -0.312248 -0.806605 -0.179077 0.241520 0.660220 -0.443245 0.392900 0.066317 0.123329 -0.060576 
1258 -0.050779 -0.412153 -0.128703 -0.520277 0.154524 -0.132741 -0.651928 -1.047312 0.090101 0.499479 -0.533049 0.062960 -0.365646 -0.150372 -0.186436 0.053223 -0.086388 0.221482 0.918180 -0.228219 0.360590 0.427645 -0.897073 -0.308056 -0.055610 -0.025207 -0.092379 -0.219857 -0.183330 0.664782 0.173622 0.144537 -0.238296 0.076249 0.217566 -0.152778 0.381148 0.398504 0.294499 0.283853 0.613559 -0.129462 -0.115565 -0.008571 0.185791 0.506924 0.171657 0.482052 -0.247506 0.073208 -0.312927 0.486825 -0.153979 -0.085919 -0.391165 -0.292977 -0.333322 0.357568 0.058011 0.744499 0.192308 -0.415198 0.268514 0.033886 0.866564 -0.027019 -0.049822 -0.223453 -0.031644 -0.378578 -0.006549 -0.176697 0.108086 -0.185265 0.410522 0.149335 0.184803 -0.226088 0.911217 -0.114600 -0.278093 0.067600 -1.417111 -0.030202 -0.992353 -0.291704 -0.048586 0.188370 0.031350 -0.420902 -0.366764 -0.324068 -0.462088 -0.480283 0.092681 0.312696 -0.128260 0.262949 0.447824 -0.224013 -0.820109 0.002035 -0.139681 0.021045 0.159125 -0.196824 0.112349 0.187449 0.434374 -0.072361 -0.156180 -0.455485 0.190353 -0.027950 0.771742 -0.194129 0.251023 0.083927 0.302404 0.223739 -0.330785 1.043114 -0.108943 0.274760 -0.360431 -0.096118 0.368432 0.097067 
912 -0.419290 -0.061031 -0.092776 -0.073696 0.393873 0.650224 -0.499893 -1.239498 0.433947 0.293812 -0.729699 -1.161649 0.670959 0.234535 -0.631402 0.148066 -0.195631 0.269682 0.835952 0.417280 0.579192 -0.030207 -0.038761 -0.009642 0.519984 0.456932 0.449085 0.165852 0.206775 -0.186844 -0.255166 -0.217167 -0.353222 0.052230 0.084601 -0.148347 -0.109056 -0.096331 0.192341 -0.027908 0.186583 0.023619 0.150526 -0.559994 0.102017 -0.234964 0.504477 0.540193 0.371947 -0.475688 0.287032 -0.047232 0.124519 -0.091655 -0.103665 -0.057796 -0.325520 -0.282218 -0.169873 0.827052 0.398145 -0.996979 -0.516890 -0.238204 -0.129862 -0.177293 -0.583854 0.310782 0.142061 0.169267 0.173399 0.022251 -0.123532 0.130895 -0.270585 -0.564085 0.668120 -0.461394 0.354889 0.521742 -0.163808 0.346830 -0.774798 -0.069323 0.373027 -0.128265 -0.304921 0.184041 0.218336 0.423060 -0.539843 -0.421163 0.234270 0.296246 1.037186 -0.126076 0.275112 0.227943 0.089716 0.285432 -0.558094 0.251620 0.036241 -0.200971 0.257969 -0.072312 0.186028 -0.066529 0.245778 0.221011 -0.151813 0.050389 0.061632 -0.034276 -0.132404 1.072562 -0.039156 0.328846 0.402768 -0.127620 0.243967 0.070944 0.077935 -0.194267 0.631292 0.134896 -0.297144 -0.056629 
4963 0.770778 -0.396450 -0.810790 -0.602384 0.098625 -0.263862 0.293309 -0.690293 -0.302903 0.173951 -0.207668 -0.369958 0.339705 0.076012 0.401598 0.512626 -0.634470 -0.130703 0.508332 -0.091672 0.492100 -0.821495 -0.261275 0.085460 0.275848 -0.524439 0.603802 -0.294006 0.833322 0.142499 -0.359982 0.342532 0.083078 0.270982 -0.119604 -0.487960 0.240943 0.003529 -0.054622 -0.238721 -0.587034 0.044416 0.619131 -0.417579 0.416418 0.256115 -0.002026 0.080337 0.280217 0.013758 0.598742 -0.213679 -0.561454 0.322893 -0.161266 -0.186700 -0.237072 0.044197 0.513445 -0.232262 0.488955 0.150141 0.513703 0.326753 0.116182 0.130182 -0.146837 -0.258384 0.766165 0.574122 0.221725 -0.202589 0.184404 0.447586 0.186232 -1.039765 0.140119 -0.738841 0.283347 -0.046573 0.152774 0.709055 -1.374675 -0.318172 -0.377206 0.264189 0.132553 -0.054747 0.344070 -0.327756 -0.410042 0.289306 0.214070 0.593925 -0.213096 0.441210 -0.202102 -0.353159 -0.208882 0.172791 0.477557 0.440416 -0.129952 -0.483865 0.387810 0.314853 0.190112 -0.285428 -0.522040 -0.398459 -0.088525 -0.241064 0.619523 -0.445013 -0.523120 0.572576 -0.031764 -0.278828 0.202620 0.097963 -0.183540 -0.257296 -0.334312 -0.261824 0.220175 0.204979 -0.089668 -1.204791 
1208 -0.612210 0.378116 0.088679 -0.862661 0.037979 -0.251537 -0.405962 -1.319117 0.106702 0.622500 -0.148565 -0.296861 -0.238370 0.593913 -0.151602 0.085217 0.307199 -0.468861 0.973070 -0.151856 -0.063127 -0.368971 -0.896605 -0.426433 0.617288 0.524943 0.027122 0.332471 -0.056878 -0.077636 0.214992 0.102357 -0.138905 0.068771 -0.076253 0.242199 -0.105557 0.029797 -0.030232 0.089115 0.595449 0.043311 0.633130 -0.294246 0.271107 0.369760 0.319756 0.016390 -0.154612 -0.630995 -0.183471 0.036385 0.207208 -0.217622 -0.325086 -0.177667 -0.277533 -0.439610 0.156635 0.434888 0.663014 -0.429325 0.243427 -0.265662 0.799325 -0.441984 -0.239047 0.017463 -0.005304 0.135593 0.152194 -0.186191 0.149594 -0.468290 -0.278157 0.272322 0.493279 -0.574986 0.402716 0.078854 -0.464780 0.024475 -1.263451 -0.157207 -0.458146 0.251858 -0.346328 0.045115 0.333865 0.517054 -0.211746 -0.978197 -0.353533 -0.474864 0.322662 0.172958 -0.227698 -0.055372 0.402618 0.227250 -0.487963 0.871030 0.068175 -0.763132 -0.031899 -0.066890 -0.042353 -0.120776 0.265820 -0.463476 -0.371555 0.043191 0.132000 -0.408575 0.142445 0.099035 0.019536 -0.234039 -0.346873 0.275371 -0.292340 0.061542 -0.403097 -0.526805 0.041381 0.347622 -0.762048 0.315677 
380 0.095420 -0.029541 -0.205784 0.171192 -0.116552 -0.079476 0.040889 -0.940121 -0.077195 -0.187778 0.254495 -0.447726 0.300790 0.395274 0.178674 0.143190 -0.366526 0.245428 0.356567 0.113367 -0.014280 0.366112 0.117069 0.027614 0.607117 -0.467052 -0.064507 0.633322 -0.107880 0.109988 0.284551 0.090371 -0.432630 0.356834 -0.322707 -0.328283 0.012926 0.115372 0.003597 -0.202910 -0.209597 0.637240 0.071127 -0.327702 -0.080335 0.222513 0.023734 -0.532582 -0.283504 0.425983 0.329649 0.215856 -0.527595 0.584046 -0.703500 0.233313 0.110271 -0.216077 0.027038 0.318105 0.093383 -0.292757 0.058248 -0.381523 0.131385 0.159518 -0.660619 0.471661 0.845659 -0.179940 -0.072415 0.964375 0.134666 -0.648406 0.156833 -0.044990 0.096371 -0.579058 0.310981 0.447800 -0.162596 -0.231327 -0.837522 0.007147 0.581043 -0.719956 -0.160224 0.261121 1.156564 -0.084012 -0.602201 0.015140 0.156978 -0.378022 0.306384 -0.010944 0.164799 0.064169 0.404752 -0.691706 -0.319393 0.228343 -0.228080 -0.517288 0.276268 -0.230763 0.047390 -0.196155 -0.037853 0.349440 -0.411846 0.140347 0.054988 -0.452283 0.135373 0.442286 0.486011 0.023820 0.094650 0.031210 -0.056943 -0.274210 -0.321153 0.245325 -0.636528 0.189748 0.055810 -0.280010 
1222 -0.128634 -0.615639 0.365113 -0.750630 0.434230 -0.018538 -0.665990 -0.901296 0.380553 0.170890 0.272468 -0.267678 0.312670 -0.051439 -0.620037 -0.044042 0.028411 0.125294 0.912445 -0.115407 -0.088644 0.178981 -0.417622 -0.535065 0.130148 -0.085390 0.375975 0.077557 -0.366617 -0.400712 0.050378 0.023020 -0.478334 0.304043 -0.245389 -0.243988 -0.009521 0.613538 0.167279 0.119857 0.253914 0.393997 0.281569 -0.502858 0.219421 0.336610 0.327542 -0.143945 0.016599 -0.014976 -0.065342 0.739830 -0.423644 0.281275 -0.548509 -0.548687 -0.516941 0.398160 -0.043402 0.478342 0.354275 -0.545556 0.455042 -0.293624 0.595496 0.021395 -0.728655 -0.010214 -0.159472 -0.290979 0.054278 0.271889 0.282772 -0.456361 -0.800257 0.087559 0.498367 0.001973 0.394132 0.054240 -0.535640 -0.638870 -1.209244 0.168518 -0.083217 -0.094783 -0.417034 -0.059131 0.334426 0.181800 0.466060 -0.120892 -0.096612 -0.482120 -0.449503 -0.034825 -0.242725 -0.060536 0.645315 -0.521550 -0.087421 -0.014035 0.401186 -0.326252 -0.319251 0.220166 0.335397 -0.024390 0.457777 -0.432998 -0.091747 -0.095115 0.471271 -0.030833 -0.051561 0.446840 -0.119596 -0.660466 0.497428 -0.113237 -0.069246 0.805720 0.005667 0.497907 0.034224 0.255741 -0.283223 0.280397 
595 -0.049390 -0.190208 -0.251717 -0.323482 0.091401 -0.374725 -0.422243 -0.704035 -0.013748 -0.175480 -0.034786 -0.801967 0.331224 0.262015 -0.575975 0.183802 0.404940 0.556275 0.077836 0.507859 -0.094122 0.423976 -1.036317 0.402962 0.433559 -0.065323 0.423489 0.023035 0.461063 0.201134 -0.051121 -0.309141 -0.627596 0.147222 -0.312696 -0.494257 0.127888 0.249124 0.387622 0.391309 0.351517 -0.243437 0.160322 0.410023 -0.261178 -0.173835 -0.297455 -0.049585 -0.476464 -0.302293 0.129367 0.048604 0.021835 0.637101 0.049749 0.075115 -0.246344 0.117283 0.499735 0.555045 -0.571189 -0.351290 -0.577878 0.625950 -0.679028 0.449793 -0.198930 -0.032125 0.904557 -0.370149 0.193907 0.223483 0.043374 -0.841957 0.112932 -0.228416 0.114765 -0.763687 0.616911 -0.004199 0.732131 0.177856 -0.710989 -0.329085 0.082125 -0.284543 -0.177145 -0.014502 0.846666 -0.214715 -0.492507 -0.329085 -0.370613 0.150212 0.356789 0.438289 0.426038 -0.148076 0.007269 -1.038126 -0.095962 0.397956 -0.011162 -0.250668 -0.627141 -0.009668 0.105594 0.669329 0.058979 -0.027843 -0.395470 -0.189799 -0.129575 0.233706 -0.179521 1.036276 0.637307 -0.012970 -0.055037 -0.209530 0.089316 0.401271 -0.446587 0.618492 0.290722 -0.319094 -0.074190 -0.313749 
8961 0.168544 -0.049795 -0.503655 -0.304445 -0.201390 0.005825 0.549760 -0.767275 0.383824 0.277225 0.023052 0.215397 0.582992 -0.118368 -0.256715 -0.040342 -0.223621 0.223000 0.717971 0.281233 0.041772 -0.201184 0.031163 0.076736 0.558779 -0.722042 0.048269 -0.234350 0.818099 -0.477169 -0.206419 -0.350696 -0.141652 0.110923 -0.250502 -0.233322 0.096318 0.517803 0.641033 -0.261239 -0.352816 0.123341 -0.149621 -0.443279 0.300136 -0.918196 -0.260749 -0.346243 -0.283513 -0.203998 -0.423660 0.782109 -0.534032 -0.178337 0.069768 0.354225 0.371275 -0.351254 0.135496 -0.033812 -0.484399 -0.296669 -0.198590 -0.485289 0.278051 0.799211 -0.019765 0.612024 0.505228 -0.281395 -0.109165 -0.175441 0.112140 0.633671 -0.446189 -0.395154 0.592335 0.165139 -0.384747 -0.060181 0.388973 0.451967 -1.597986 -0.289955 -0.811576 -0.007795 0.457759 -0.103481 -0.118663 0.249528 -0.478954 -0.239232 -0.041724 0.341973 -0.381817 0.326012 -0.296003 -0.236470 -0.277657 0.277353 0.366246 -0.066458 0.549411 -0.736675 0.320348 0.794095 -0.378204 -0.594156 -0.198142 -0.138162 0.352399 0.267934 0.306973 0.704349 -0.160873 0.251668 -0.364618 0.154914 0.362607 -0.409399 -0.429178 0.085098 -0.505230 -0.318303 0.866551 -0.213239 -0.377793 0.633738 
1682 0.148961 0.323277 -0.122872 -0.482137 0.228185 0.024577 -0.205269 -1.111035 -0.103055 0.431588 -0.337905 -0.758088 -0.553924 -0.048976 -0.003100 0.547079 0.220539 -0.081789 0.742128 0.100762 -0.319091 0.331176 -0.472538 -0.172236 0.117855 -0.627153 -0.607758 0.287204 0.249545 -0.180966 0.385138 0.266600 -0.145540 -0.246067 0.041521 0.233348 0.665579 -0.395627 0.112350 -0.313021 0.008424 -0.014670 0.551113 0.263082 0.497687 -0.019633 0.356213 0.151356 -0.036402 -0.146737 0.088359 0.025782 -0.494442 -0.209682 -0.821209 0.148539 1.026852 -0.204081 0.205631 0.093463 -0.103018 -0.935378 -0.318134 -0.146858 0.247464 0.108813 -0.413767 -0.679851 -0.180764 0.127075 0.326420 0.163649 0.063616 -0.132408 -0.035010 0.148487 -0.371031 -0.193239 0.519634 -0.058355 0.468274 -0.547395 -1.133996 0.405859 0.214868 -0.021802 -0.360482 -0.314189 0.157734 0.248577 0.172959 0.277630 -0.019887 -0.498655 -0.474185 -0.071163 0.379704 -0.317869 -0.361460 0.058126 0.402208 0.374149 -0.157898 -0.167377 0.158956 -0.111807 0.875521 0.236567 0.075240 0.355766 -1.036063 -0.736859 -0.041438 0.266470 0.053244 0.260415 -0.178031 0.087620 0.354139 0.043638 -0.141864 0.041455 -0.502532 -0.909359 0.531477 -0.219381 0.406017 -0.433129 
750 -0.726971 0.128402 -0.337836 -0.072370 0.018494 -0.032197 -0.062403 -0.272686 0.124686 -0.568854 -0.179076 -0.193957 1.009440 0.151202 -0.711841 -0.171780 0.066313 0.211436 0.539444 -0.063267 0.451903 0.048179 -0.254916 0.487796 0.332584 -0.293822 -0.057207 -0.121374 -0.023813 0.341371 0.340366 0.008891 -0.449982 -0.452770 0.314024 -0.152021 0.329365 0.237292 0.066098 0.094963 0.133716 -0.728124 0.215154 -0.207567 -0.410828 0.504514 0.195383 0.436862 0.076905 -0.610855 -0.100328 0.225844 -0.185473 0.204407 -0.346888 -0.014894 -0.045211 -0.043611 -0.376861 0.691436 0.240596 -0.669790 0.160868 -0.185896 0.031265 0.530250 -0.362145 0.125137 0.469992 0.357514 0.057388 0.282064 0.492373 -0.404452 0.134990 -0.100148 0.628090 -0.137794 0.228917 -0.110143 -0.170584 -0.178617 -0.445450 -0.266220 0.196241 -0.495269 -0.747280 0.125480 1.184705 0.557154 -0.025232 -1.003177 0.288306 0.057319 0.549798 0.184903 0.402690 0.420990 0.206969 -0.001776 -0.311496 1.107110 0.273313 -0.663085 0.259573 0.352268 -0.372461 -0.017403 -0.313772 0.034316 -0.248185 -0.595728 -0.169111 0.524880 0.089263 0.597724 -0.086179 -0.058749 -0.559643 -0.208356 0.365883 0.383599 0.437862 -0.068156 -0.078315 0.548437 -0.072472 -0.303670 
648 -0.916898 -0.213654 -0.616180 -0.324971 0.671217 -0.046056 -0.824681 -0.869879 -0.418096 0.107922 -0.400292 -0.646659 0.048956 0.246064 -0.443695 0.393444 -0.312555 0.282663 0.332278 -0.076733 -0.011071 0.066401 -0.277705 0.272793 0.140696 -0.147481 0.353634 -0.162745 -0.247885 -0.277576 -0.266825 -0.402097 -0.177504 0.179181 -0.453533 -0.314398 -0.305866 -0.039172 0.327359 0.159308 0.559459 0.076879 0.043007 0.029979 -0.275068 0.218604 -0.192323 -0.578279 -0.286019 0.173904 -0.538968 0.397205 -0.572714 0.026144 -0.299841 0.170812 0.017665 -0.211191 -0.092598 0.111677 -0.240796 -0.055960 -0.654998 -0.360673 -0.249513 0.310257 0.246568 0.094856 0.136369 -0.113214 -0.206852 0.568810 0.359011 -0.274671 0.076507 -0.415925 0.443045 -0.629537 0.129125 0.373645 -0.026324 0.242938 -0.899169 0.152722 0.080599 -0.042149 0.168708 0.336708 1.267017 -0.358759 -0.291843 -0.049960 -0.305794 0.154960 1.041828 0.501463 0.442014 -0.009116 0.146278 -0.215278 -0.068440 0.162937 0.047572 -0.126382 0.132325 -0.114153 -0.175982 0.228919 0.259102 0.609835 -0.612867 -0.296579 -0.158852 -0.112330 -0.758446 1.055916 0.573838 -0.492995 0.103195 -0.624525 0.404509 0.666215 -0.047470 -0.047157 0.050294 -0.044692 0.071421 0.153491 
1073 -0.858880 0.335702 -0.165370 0.124199 -0.114102 -0.269864 0.044396 -1.428507 0.382590 0.576380 -0.690681 -0.569034 0.240411 0.269841 0.043156 -0.086388 0.276072 0.050103 0.372506 0.544244 -0.305925 1.110418 -0.723949 -0.041421 0.332493 -0.044663 0.358915 0.878598 0.135316 -0.589617 -0.100661 -0.361227 -0.432494 0.398744 -0.147035 -0.449252 0.098355 -0.348395 -0.309583 -0.694674 0.499079 0.159736 0.063712 -0.369572 0.258124 -0.312124 0.178131 0.042516 -0.334115 -0.417417 0.030813 0.115137 0.109886 -0.133248 -0.439681 -0.228676 0.255039 0.151368 -0.464721 0.104843 0.278870 -0.409560 0.103331 -0.394658 -0.443932 -0.539072 0.638071 0.174200 -0.105166 -0.107387 -0.154777 0.140480 -0.073476 0.278238 0.038975 -0.502038 0.697865 0.082645 0.092533 0.114473 -0.072596 -0.123129 -1.448653 -0.631916 -0.285084 0.133567 0.178547 -0.148598 0.878272 0.389603 -0.188875 -0.511889 -0.106355 0.127412 0.381199 0.441882 0.384178 -0.017649 -0.223899 -0.304411 0.158941 0.352301 0.103919 -0.001590 0.353301 0.601607 0.135116 0.428737 -0.059908 -0.407120 0.281245 -0.352107 -0.233209 0.116063 0.071005 0.339387 0.226793 0.626272 0.055637 0.071804 0.008047 0.424578 0.260271 0.034027 -0.354897 0.210927 0.729100 -0.188039 
4878 0.197975 -0.188162 -0.692588 0.171345 0.232033 -0.318276 0.090477 -1.013597 0.466368 -0.207260 -0.279584 0.205340 0.515958 0.659206 -0.063641 1.083702 0.262914 0.104448 0.655501 -0.730948 0.643374 -0.769302 -0.161998 -0.372390 0.150033 0.158538 0.220132 -0.230684 0.716328 -0.519881 -0.132298 0.249305 0.056614 -0.214967 0.192024 -0.133244 0.538468 -0.419614 0.610978 -0.152835 -0.607596 0.360207 -0.136548 -0.632995 0.053247 0.054547 0.201395 -0.260380 0.706223 -0.681645 -0.279193 0.048251 -0.595736 -0.124439 -0.298031 -0.399240 0.062940 -0.010301 0.636778 0.116340 0.148135 -0.256147 -0.299314 -0.162177 0.588289 0.251457 -0.079332 0.025052 0.116716 0.451469 0.094030 -0.262796 -0.255576 -0.208780 -0.376290 -0.526536 -0.034349 0.057115 0.547038 0.145632 -0.154190 0.309620 -1.105986 -0.098362 -0.210545 0.212955 0.043455 0.642359 0.249047 -0.545205 0.062463 -0.448762 0.024605 0.129974 -0.255136 0.708998 -0.292741 -0.931562 -0.181701 -0.262627 -0.128637 0.466851 0.164649 0.345073 0.310922 0.189103 0.197746 0.117659 -0.460800 0.242502 -0.493670 -0.278489 -0.002700 0.105225 0.139836 0.300082 -0.504680 -0.132928 0.007542 0.754919 -0.065453 0.163149 0.427796 -0.915378 0.163802 -0.318381 0.528199 -0.013091 
377 -0.145225 -0.068431 -0.273322 -0.162846 0.269818 -0.204959 -0.117635 -0.348692 -0.705013 -0.135727 -0.467901 -0.326207 0.204487 0.384611 0.154036 -0.462761 0.014037 0.432936 0.961125 0.301572 0.473476 0.698050 -0.225885 0.338552 -0.144251 -0.292852 -0.289836 0.417771 0.236247 0.457751 -0.281434 0.272191 -0.522329 0.128985 0.059763 0.034713 0.125970 0.251916 0.618915 -0.349589 -0.239417 0.683876 0.032383 -0.567193 0.304300 0.088682 0.008357 -0.725834 -0.260356 -0.335407 0.376792 0.309061 -0.670985 0.446988 -0.305254 0.543934 -0.188306 0.264706 -0.577294 0.457152 0.294354 -0.476220 0.040805 -0.078086 -0.193253 0.077574 -0.029850 0.308142 0.256584 -0.491645 0.911549 0.704538 0.105152 -0.516506 0.102815 0.054503 -0.212773 -0.122699 -0.007701 -0.232402 -0.026542 0.112465 -0.772518 0.448207 0.231366 -0.064807 -0.604465 0.073683 1.317962 0.369892 -0.848099 -0.182859 -0.421189 -0.059518 0.117888 0.079499 0.358215 -0.081998 0.398573 0.271949 0.005934 0.647143 -0.031395 -0.210295 -0.119195 -0.141509 -0.434173 0.329967 0.170589 0.520739 -0.438411 0.052310 -0.024772 -0.085996 0.204848 -0.050846 0.044313 0.322832 0.148447 0.160109 0.105397 0.153180 -0.172922 0.024688 -0.451146 -0.146528 -0.251462 -0.368658 
1580 0.310649 -0.484034 -0.038907 -0.098628 0.112868 0.177234 -0.272683 -1.145583 0.283862 0.630000 0.147250 -0.398979 -0.437651 -0.028117 -0.071638 0.251041 -0.553913 0.151542 0.590990 0.149850 -0.736239 0.611633 -0.381777 -0.010588 -0.169090 -0.093976 -0.008109 0.531400 0.433859 0.006399 0.089708 0.496020 -0.228249 0.536370 -0.127061 -0.281373 -0.203404 -0.138842 1.121079 0.090983 0.091705 1.097461 1.325105 -0.101820 0.563956 -0.611915 0.002175 -0.560978 -0.380704 0.158136 -0.053283 0.192647 -0.542853 -0.113950 -0.555268 0.272959 0.386029 -0.153779 0.189122 0.666227 0.145866 0.535997 -0.133933 0.096214 0.129597 0.129605 -0.061720 0.015370 0.063805 0.097233 -0.251291 -0.065876 0.395179 -0.160446 -0.289995 -0.056197 -0.304604 0.070256 0.461461 0.215420 -0.468965 -0.045226 -1.424796 0.034961 0.507869 0.184881 -0.295999 -0.537420 0.576861 -0.106776 0.159855 0.121198 0.159937 0.235227 -0.467774 0.050668 0.206068 0.487212 -0.133516 -0.023740 0.118295 0.103857 0.440658 -0.439728 -0.541030 -0.201512 -0.388492 -0.495951 0.243363 0.619059 -0.287085 0.504497 0.215751 -0.179011 0.009109 0.500686 -0.299989 0.033183 0.008219 0.569258 0.443861 0.352157 0.542858 -0.117830 0.908726 0.154646 0.774309 -0.594884 
111 -0.124752 -0.276976 0.054233 -0.698240 -0.375529 -0.136841 0.074648 -0.855159 -0.078763 -0.113970 -0.081805 -0.324428 0.520062 0.291461 -0.141819 0.292498 0.240955 0.391048 1.113019 0.519501 -0.048190 0.198877 0.098895 -0.441046 0.258584 -0.290330 -0.045909 -0.252871 0.391370 0.541570 -0.230705 0.036036 -0.147207 0.058696 0.379185 -0.523819 -0.044332 0.525318 -0.586395 -0.175403 -0.493615 0.006246 -0.053778 -0.306407 -0.247857 0.437160 0.063108 0.240928 -0.125812 -0.120538 -0.008311 0.019304 -0.138579 0.446652 -0.093750 0.406921 -0.025400 -0.394989 0.504561 0.079664 0.196694 0.020628 0.175954 0.456106 -0.123180 0.100154 0.165103 0.199772 0.232680 -0.182270 0.182847 0.298328 -0.247248 -0.432721 -0.418319 -0.243114 0.382185 -0.620335 -0.142992 -0.305966 0.189502 0.301682 -0.705658 -0.093018 0.576476 -0.323106 -0.190949 0.285080 1.319858 0.207680 0.051069 0.080913 -0.120987 -0.435096 0.663796 -0.180186 -0.449101 -0.182279 0.083211 0.524349 -0.517963 0.488919 0.555168 -0.234978 0.420320 -0.063225 -1.075823 -0.238508 0.121818 0.217970 0.108326 0.149485 -0.027342 -0.222544 0.342927 -0.269525 0.499096 -0.285398 -0.346429 -0.019142 0.018548 0.330557 0.150856 0.353381 -0.615954 -0.241551 -0.047384 -0.535432 
